{"learner":{"attributes":{"scikit_learn":"{\"_estimator_type\": \"regressor\"}"},"feature_names":["runs_so_far","wickets_so_far","balls_so_far","current_run_rate","balls_remaining","wickets_remaining","venue_avg_score","strike_rate","economy","match_phase","runs_last_3_overs"],"feature_types":["int","int","int","float","int","int","float","float","float","int","float"],"gradient_booster":{"model":{"cats":{"enc":[],"feature_segments":[],"sorted_idx":[]},"gbtree_model_param":{"num_parallel_tree":"1","num_trees":"500"},"iteration_indptr":[0,1,2,3,4,5,6,7,8,9,10,11,12,13,14,15,16,17,18,19,20,21,22,23,24,25,26,27,28,29,30,31,32,33,34,35,36,37,38,39,40,41,42,43,44,45,46,47,48,49,50,51,52,53,54,55,56,57,58,59,60,61,62,63,64,65,66,67,68,69,70,71,72,73,74,75,76,77,78,79,80,81,82,83,84,85,86,87,88,89,90,91,92,93,94,95,96,97,98,99,100,101,102,103,104,105,106,107,108,109,110,111,112,113,114,115,116,117,118,119,120,121,122,123,124,125,126,127,128,129,130,131,132,133,134,135,136,137,138,139,140,141,142,143,144,145,146,147,148,149,150,151,152,153,154,155,156,157,158,159,160,161,162,163,164,165,166,167,168,169,170,171,172,173,174,175,176,177,178,179,180,181,182,183,184,185,186,187,188,189,190,191,192,193,194,195,196,197,198,199,200,201,202,203,204,205,206,207,208,209,210,211,212,213,214,215,216,217,218,219,220,221,222,223,224,225,226,227,228,229,230,231,232,233,234,235,236,237,238,239,240,241,242,243,244,245,246,247,248,249,250,251,252,253,254,255,256,257,258,259,260,261,262,263,264,265,266,267,268,269,270,271,272,273,274,275,276,277,278,279,280,281,282,283,284,285,286,287,288,289,290,291,292,293,294,295,296,297,298,299,300,301,302,303,304,305,306,307,308,309,310,311,312,313,314,315,316,317,318,319,320,321,322,323,324,325,326,327,328,329,330,331,332,333,334,335,336,337,338,339,340,341,342,343,344,345,346,347,348,349,350,351,352,353,354,355,356,357,358,359,360,361,362,363,364,365,366,367,368,369,370,371,372,373,374,375,376,377,378,379,380,381,382,383,384,385,386,387,388,389,390,391,392,393,394,395,396,397,398,399,400,401,402,403,404,405,406,407,408,409,410,411,412,413,414,415,416,417,418,419,420,421,422,423,424,425,426,427,428,429,430,431,432,433,434,435,436,437,438,439,440,441,442,443,444,445,446,447,448,449,450,451,452,453,454,455,456,457,458,459,460,461,462,463,464,465,466,467,468,469,470,471,472,473,474,475,476,477,478,479,480,481,482,483,484,485,486,487,488,489,490,491,492,493,494,495,496,497,498,499,500],"tree_info":[0,0,0,0,0,0,0,0,0,0,0,0,0,0,0,0,0,0,0,0,0,0,0,0,0,0,0,0,0,0,0,0,0,0,0,0,0,0,0,0,0,0,0,0,0,0,0,0,0,0,0,0,0,0,0,0,0,0,0,0,0,0,0,0,0,0,0,0,0,0,0,0,0,0,0,0,0,0,0,0,0,0,0,0,0,0,0,0,0,0,0,0,0,0,0,0,0,0,0,0,0,0,0,0,0,0,0,0,0,0,0,0,0,0,0,0,0,0,0,0,0,0,0,0,0,0,0,0,0,0,0,0,0,0,0,0,0,0,0,0,0,0,0,0,0,0,0,0,0,0,0,0,0,0,0,0,0,0,0,0,0,0,0,0,0,0,0,0,0,0,0,0,0,0,0,0,0,0,0,0,0,0,0,0,0,0,0,0,0,0,0,0,0,0,0,0,0,0,0,0,0,0,0,0,0,0,0,0,0,0,0,0,0,0,0,0,0,0,0,0,0,0,0,0,0,0,0,0,0,0,0,0,0,0,0,0,0,0,0,0,0,0,0,0,0,0,0,0,0,0,0,0,0,0,0,0,0,0,0,0,0,0,0,0,0,0,0,0,0,0,0,0,0,0,0,0,0,0,0,0,0,0,0,0,0,0,0,0,0,0,0,0,0,0,0,0,0,0,0,0,0,0,0,0,0,0,0,0,0,0,0,0,0,0,0,0,0,0,0,0,0,0,0,0,0,0,0,0,0,0,0,0,0,0,0,0,0,0,0,0,0,0,0,0,0,0,0,0,0,0,0,0,0,0,0,0,0,0,0,0,0,0,0,0,0,0,0,0,0,0,0,0,0,0,0,0,0,0,0,0,0,0,0,0,0,0,0,0,0,0,0,0,0,0,0,0,0,0,0,0,0,0,0,0,0,0,0,0,0,0,0,0,0,0,0,0,0,0,0,0,0,0,0,0,0,0,0,0,0,0,0,0,0,0,0,0,0,0,0,0,0,0,0,0,0,0,0,0,0,0,0,0,0,0,0,0,0,0,0,0,0,0,0,0,0,0,0,0,0,0,0,0,0,0,0,0,0,0,0,0,0,0,0,0,0,0,0,0,0,0,0,0,0,0,0,0,0,0,0,0],"trees":[{"base_weights":[6.749773E-7,-2.886756E1,2.576263E1,-4.345419E1,-1.4829754E1,1.3112937E1,4.770186E1,-6.1504078E1,-2.7183905E1,-2.5425892E0,-2.2193285E1,5.2215877E0,2.1910137E1,3.0442196E1,5.664269E1,-7.0469406E1,-5.0300636E1,-3.519513E1,-1.7884357E1,-1.2876691E1,1.0802539E1,-3.6289425E1,-1.2410975E1,4.2726678E-1,1.0759049E1,1.6099844E1,2.5774187E1,2.2914999E1,4.4688057E1,4.8309063E1,8.2538284E1,-8.064696E1,-5.9970474E1,-3.8821167E1,-5.854649E1,-2.7506163E1,-4.044437E1,-1.5881658E1,-2.4987993E1,-1.8639265E1,-9.67977E-1,3.7064755E0,2.2599709E1,-3.1021915E1,-4.8115177E1,-8.146624E0,-2.0499647E1,-3.6002216E0,5.21654E0,1.932555E1,6.959989E0,7.715274E0,2.1388948E1,2.496814E1,5.1897232E1,1.9375689E1,4.359301E1,4.0762264E1,7.92781E1,4.194898E1,5.7494606E1,6.570822E1,9.076037E1,-6.49579E0,-8.778346E0,-5.284304E0,-6.3684034E0,-5.0819263E0,-3.059578E0,-6.9278994E0,-5.347193E0,-3.3355808E0,-2.354181E0,-4.5333524E0,-3.4720829E0,-1.8441429E0,-1.1034896E0,-2.9958541E0,-1.9555018E0,-2.5057292E0,-1.1296787E0,-8.87208E-1,5.3087145E-1,-5.6799084E-1,9.120475E-1,1.9911779E0,5.4971867E0,-4.008948E0,-2.2817376E0,-6.3750243E0,-4.176672E0,-1.2286786E0,-1.17093824E-1,-2.8084419E0,-1.4459941E0,-8.4217733E-1,-7.946348E-2,-1.6451369E-1,7.337557E-1,1.1862701E0,2.770195E0,9.788079E-1,6.0724895E-2,-1.4017752E-1,1.6096392E0,1.7862424E0,2.805098E0,2.0757873E0,2.8555038E0,4.6075892E0,8.042396E0,8.077084E-1,2.4865618E0,9.210776E0,4.2242928E0,3.065429E0,4.518409E0,7.4704447E0,1.7305304E1,3.7788112E0,4.509163E0,5.1012816E0,6.0492563E0,6.989663E0,2.7168827E0,8.10996E0,1.0943846E1],"categories":[],"categories_nodes":[],"categories_segments":[],"categories_sizes":[],"default_left":[0,0,0,0,0,0,0,0,0,0,0,0,0,0,0,0,0,0,0,0,0,0,0,0,0,0,0,0,0,0,0,0,0,0,0,0,0,0,0,0,0,0,0,0,0,0,0,0,0,0,0,0,0,0,0,0,0,0,0,0,0,0,0,0,0,0,0,0,0,0,0,0,0,0,0,0,0,0,0,0,0,0,0,0,0,0,0,0,0,0,0,0,0,0,0,0,0,0,0,0,0,0,0,0,0,0,0,0,0,0,0,0,0,0,0,0,0,0,0,0,0,0,0,0,0,0,0],"id":0,"left_children":[1,3,5,7,9,11,13,15,17,19,21,23,25,27,29,31,33,35,37,39,41,43,45,47,49,51,53,55,57,59,61,63,65,67,69,71,73,75,77,79,81,83,85,87,89,91,93,95,97,99,101,103,105,107,109,111,113,115,117,119,121,123,125,-1,-1,-1,-1,-1,-1,-1,-1,-1,-1,-1,-1,-1,-1,-1,-1,-1,-1,-1,-1,-1,-1,-1,-1,-1,-1,-1,-1,-1,-1,-1,-1,-1,-1,-1,-1,-1,-1,-1,-1,-1,-1,-1,-1,-1,-1,-1,-1,-1,-1,-1,-1,-1,-1,-1,-1,-1,-1,-1,-1,-1,-1,-1,-1],"loss_changes":[3.5655936E8,4.629533E7,7.030827E7,3.2560928E7,1.0424332E7,1.1155478E7,1.4295776E7,5.276112E6,4.34396E6,5.954399E6,9.933624E6,2.2488812E6,1.705544E6,3.389526E6,1.3167184E7,3.114848E6,2.209784E6,1.26328E6,3.83575E5,1.6698305E6,1.577329E6,1.83694E6,1.4668175E6,8.757662E5,1.279131E6,1.3458515E6,9.59594E5,1.513373E6,1.48099E6,2.69524E6,2.050056E6,1.65384E6,3.77116E5,9.62832E5,7.3688E5,2.9403E5,5.19336E5,2.61042E5,1.5966075E5,7.724595E5,3.937649E5,5.980258E5,6.1470425E5,1.51831E6,8.99894E5,8.0430675E5,6.721275E5,3.336166E5,3.018565E5,7.545635E5,4.892655E5,8.972413E5,4.36743E5,6.67962E5,2.229715E5,1.0957195E6,1.94112E5,4.37437E5,4.64432E5,3.55116E5,3.63968E5,7.85824E5,1.791792E6,0E0,0E0,0E0,0E0,0E0,0E0,0E0,0E0,0E0,0E0,0E0,0E0,0E0,0E0,0E0,0E0,0E0,0E0,0E0,0E0,0E0,0E0,0E0,0E0,0E0,0E0,0E0,0E0,0E0,0E0,0E0,0E0,0E0,0E0,0E0,0E0,0E0,0E0,0E0,0E0,0E0,0E0,0E0,0E0,0E0,0E0,0E0,0E0,0E0,0E0,0E0,0E0,0E0,0E0,0E0,0E0,0E0,0E0,0E0,0E0,0E0,0E0,0E0,0E0],"parents":[2147483647,0,0,1,1,2,2,3,3,4,4,5,5,6,6,7,7,8,8,9,9,10,10,11,11,12,12,13,13,14,14,15,15,16,16,17,17,18,18,19,19,20,20,21,21,22,22,23,23,24,24,25,25,26,26,27,27,28,28,29,29,30,30,31,31,32,32,33,33,34,34,35,35,36,36,37,37,38,38,39,39,40,40,41,41,42,42,43,43,44,44,45,45,46,46,47,47,48,48,49,49,50,50,51,51,52,52,53,53,54,54,55,55,56,56,57,57,58,58,59,59,60,60,61,61,62,62],"right_children":[2,4,6,8,10,12,14,16,18,20,22,24,26,28,30,32,34,36,38,40,42,44,46,48,50,52,54,56,58,60,62,64,66,68,70,72,74,76,78,80,82,84,86,88,90,92,94,96,98,100,102,104,106,108,110,112,114,116,118,120,122,124,126,-1,-1,-1,-1,-1,-1,-1,-1,-1,-1,-1,-1,-1,-1,-1,-1,-1,-1,-1,-1,-1,-1,-1,-1,-1,-1,-1,-1,-1,-1,-1,-1,-1,-1,-1,-1,-1,-1,-1,-1,-1,-1,-1,-1,-1,-1,-1,-1,-1,-1,-1,-1,-1,-1,-1,-1,-1,-1,-1,-1,-1,-1,-1,-1],"split_conditions":[6E0,8.769231E1,8.018182E0,4E0,2E0,6.9166665E0,6.7E1,6.5811966E1,5E0,6.853608E0,4.8E0,1.1285008E2,6.8644066E0,1.5206818E2,9.833333E0,3E0,2E0,3E0,6E0,1.1507648E2,1.4788889E2,5E0,5E0,6.413793E0,2E0,6.7E1,1.85E2,8.571428E0,1.8766667E2,8.833333E0,1.15E2,2E0,3E0,1.135E2,3E0,5.1875E0,4.551724E0,5.571429E0,1.02E2,4.5E0,1.3614285E2,1.11034485E2,1.8233333E2,1.3163889E2,3.8076923E0,1.426E2,5.368421E0,6E0,4.7E1,1.45E2,5E0,1.0944882E2,7.5555553E0,7.4226804E0,2.064E2,2.3E1,7.597403E1,1.2149123E2,3.165E2,8.347826E0,1.09E2,3E0,1.09811325E1,-6.49579E0,-8.778346E0,-5.284304E0,-6.3684034E0,-5.0819263E0,-3.059578E0,-6.9278994E0,-5.347193E0,-3.3355808E0,-2.354181E0,-4.5333524E0,-3.4720829E0,-1.8441429E0,-1.1034896E0,-2.9958541E0,-1.9555018E0,-2.5057292E0,-1.1296787E0,-8.87208E-1,5.3087145E-1,-5.6799084E-1,9.120475E-1,1.9911779E0,5.4971867E0,-4.008948E0,-2.2817376E0,-6.3750243E0,-4.176672E0,-1.2286786E0,-1.17093824E-1,-2.8084419E0,-1.4459941E0,-8.4217733E-1,-7.946348E-2,-1.6451369E-1,7.337557E-1,1.1862701E0,2.770195E0,9.788079E-1,6.0724895E-2,-1.4017752E-1,1.6096392E0,1.7862424E0,2.805098E0,2.0757873E0,2.8555038E0,4.6075892E0,8.042396E0,8.077084E-1,2.4865618E0,9.210776E0,4.2242928E0,3.065429E0,4.518409E0,7.4704447E0,1.7305304E1,3.7788112E0,4.509163E0,5.1012816E0,6.0492563E0,6.989663E0,2.7168827E0,8.10996E0,1.0943846E1],"split_indices":[3,7,3,3,1,3,0,7,3,8,3,7,8,6,3,3,1,1,1,7,6,1,1,3,1,0,6,8,6,3,0,1,1,6,3,8,3,3,0,3,6,7,6,6,3,6,3,8,0,6,1,7,3,3,6,0,7,7,6,3,0,1,3,0,0,0,0,0,0,0,0,0,0,0,0,0,0,0,0,0,0,0,0,0,0,0,0,0,0,0,0,0,0,0,0,0,0,0,0,0,0,0,0,0,0,0,0,0,0,0,0,0,0,0,0,0,0,0,0,0,0,0,0,0,0,0,0],"split_type":[0,0,0,0,0,0,0,0,0,0,0,0,0,0,0,0,0,0,0,0,0,0,0,0,0,0,0,0,0,0,0,0,0,0,0,0,0,0,0,0,0,0,0,0,0,0,0,0,0,0,0,0,0,0,0,0,0,0,0,0,0,0,0,0,0,0,0,0,0,0,0,0,0,0,0,0,0,0,0,0,0,0,0,0,0,0,0,0,0,0,0,0,0,0,0,0,0,0,0,0,0,0,0,0,0,0,0,0,0,0,0,0,0,0,0,0,0,0,0,0,0,0,0,0,0,0,0],"sum_hessian":[4.79435E5,2.26093E5,2.53342E5,1.10878E5,1.15215E5,1.60692E5,9.265E4,5.2563E4,5.8315E4,4.3174E4,7.2041E4,8.4708E4,7.5984E4,3.1618E4,6.1032E4,2.9195E4,2.3368E4,3.1326E4,2.6989E4,2.4332E4,1.8842E4,2.9512E4,4.2529E4,4.5401E4,3.9307E4,3.0351E4,4.5633E4,2.0689E4,1.0929E4,4.6175E4,1.4857E4,1.4821E4,1.4374E4,9.771E3,1.3597E4,1.2712E4,1.8614E4,2.1056E4,5.933E3,1.6397E4,7.935E3,1.1766E4,7.076E3,2.042E4,9.092E3,2.7849E4,1.468E4,2.4662E4,2.0739E4,1.2075E4,2.7232E4,1.1741E4,1.861E4,4.4269E4,1.364E3,1.7667E4,3.022E3,9.817E3,1.112E3,2.7287E4,1.8888E4,4.879E3,9.978E3,4.637E3,1.0184E4,4.929E3,9.445E3,3.972E3,5.799E3,4.361E3,9.236E3,5.132E3,7.58E3,1.0035E4,8.579E3,1.3777E4,7.279E3,3.096E3,2.837E3,8.748E3,7.649E3,3.512E3,4.423E3,4.304E3,7.462E3,6.535E3,5.41E2,9.698E3,1.0722E4,2.623E3,6.469E3,1.7476E4,1.0373E4,6.506E3,8.174E3,9.071E3,1.5591E4,4.897E3,1.5842E4,6.387E3,5.688E3,1.8843E4,8.389E3,5.624E3,6.117E3,1.2171E4,6.439E3,2.0368E4,2.3901E4,1.135E3,2.29E2,5.778E3,1.1889E4,8E1,2.942E3,2.99E3,6.827E3,1.062E3,5E1,1.1747E4,1.554E4,5.979E3,1.2909E4,4.4E3,4.79E2,6.58E3,3.398E3],"tree_param":{"num_deleted":"0","num_feature":"11","num_nodes":"127","size_leaf_vector":"1"}},{"base_weights":[8.153931E-5,-2.2838982E1,2.63988E1,-3.863746E1,-1.0356181E1,1.4591071E1,4.2932724E1,-4.7141365E1,-1.060863E1,-1.6370026E1,-2.481601E0,8.608471E0,2.1254282E1,2.588698E1,5.0314747E1,-5.8761013E1,-3.8178585E1,3.3586574E0,-3.0110167E1,-2.426528E1,-1.0887879E1,3.368765E0,-1.2795344E1,4.65766E0,1.2623467E1,1.5773044E1,2.4495235E1,1.8968529E1,3.9296432E1,4.213235E1,7.070459E1,-7.176553E1,-4.9445522E1,-2.77457E1,-4.499276E1,-3.7141967E0,1.6489021E1,-2.4273104E1,-4.5710384E1,-1.7840382E1,-2.9067791E1,-1.4920906E1,-7.3456097E0,-1.5863372E0,1.1678306E1,-2.3535276E1,-7.3728185E0,-1.2783026E0,6.6032743E0,1.5884915E1,6.842704E0,5.036418E0,2.0308426E1,2.2600023E1,3.4393734E1,1.5855676E1,3.750021E1,3.6130997E1,7.651612E1,3.5556267E1,4.81128E1,6.022179E1,8.1884125E1,-6.079633E0,-8.05908E0,-5.4259896E0,-4.059221E0,-4.051655E0,-2.145579E0,-5.506578E0,-3.9290922E0,-2.007096E0,4.9417425E-2,1.3289934E0,4.350641E0,-4.288774E0,-2.1346557E0,-5.980947E0,-3.966821E0,-2.04547E0,-7.1768844E-1,-2.9526026E0,2.8427688E-3,-9.8666716E-1,-1.8872441E0,-1.4100474E0,-5.835492E-1,-5.007702E-1,4.238115E-1,1.9140099E0,3.583083E-1,-1.6631292E0,-2.70156E0,-4.3437648E-1,-1.2437062E0,-8.122646E-1,7.464333E-1,9.213132E-1,4.3394163E-2,1.4400663E0,3.2466264E0,3.4054583E-1,9.818508E-1,3.1656212E-1,3.5993302E0,1.983244E0,4.933871E0,2.1083808E0,3.0409963E0,3.3017051E0,7.2173357E0,6.3371706E-1,2.186015E0,-1.0052891E1,3.79029E0,2.6673565E0,4.0243406E0,7.104243E0,1.5641118E1,3.4242756E0,4.300466E0,4.611802E0,5.657627E0,5.939014E0,1.6896666E1,7.2683387E0,1.0348365E1],"categories":[],"categories_nodes":[],"categories_segments":[],"categories_sizes":[],"default_left":[0,0,0,0,0,0,0,0,0,0,0,0,0,0,0,0,0,0,0,0,0,0,0,0,0,0,0,0,0,0,0,0,0,0,0,0,0,0,0,0,0,0,0,0,0,0,0,0,0,0,0,0,0,0,0,0,0,0,0,0,0,0,0,0,0,0,0,0,0,0,0,0,0,0,0,0,0,0,0,0,0,0,0,0,0,0,0,0,0,0,0,0,0,0,0,0,0,0,0,0,0,0,0,0,0,0,0,0,0,0,0,0,0,0,0,0,0,0,0,0,0,0,0,0,0,0,0],"id":1,"left_children":[1,3,5,7,9,11,13,15,17,19,21,23,25,27,29,31,33,35,37,39,41,43,45,47,49,51,53,55,57,59,61,63,65,67,69,71,73,75,77,79,81,83,85,87,89,91,93,95,97,99,101,103,105,107,109,111,113,115,117,119,121,123,125,-1,-1,-1,-1,-1,-1,-1,-1,-1,-1,-1,-1,-1,-1,-1,-1,-1,-1,-1,-1,-1,-1,-1,-1,-1,-1,-1,-1,-1,-1,-1,-1,-1,-1,-1,-1,-1,-1,-1,-1,-1,-1,-1,-1,-1,-1,-1,-1,-1,-1,-1,-1,-1,-1,-1,-1,-1,-1,-1,-1,-1,-1,-1,-1],"loss_changes":[2.890631E8,5.069204E7,4.341576E7,2.704224E7,6.80007E6,5.171606E6,1.1657168E7,9.063104E6,7.194023E6,3.523658E6,3.7518722E6,1.084333E6,1.089942E6,2.59698E6,1.0783248E7,4.58816E6,3.492464E6,1.4293175E6,1.002549E6,1.02895E6,6.86379E5,1.6336218E6,1.3104632E6,3.97967E5,6.391245E5,1.1105755E6,7.22766E5,1.065046E6,1.119909E6,1.812832E6,2.164664E6,1.526288E6,9.39216E5,1.559011E6,1.705144E6,6.8856975E5,4.6511188E5,4.361505E5,2.531945E5,3.977805E5,2.54538E5,4.485645E5,2.60901E5,4.9532112E5,8.9519225E5,1.8096275E5,2.2936894E5,5.0909912E5,4.1785125E5,5.32974E5,1.2507225E5,3.9225375E5,2.20593E5,3.82718E5,3.19875E5,9.0391725E5,1.514395E5,3.40562E5,3.151295E5,2.1356E5,4.05296E5,8.54364E5,1.77232E6,0E0,0E0,0E0,0E0,0E0,0E0,0E0,0E0,0E0,0E0,0E0,0E0,0E0,0E0,0E0,0E0,0E0,0E0,0E0,0E0,0E0,0E0,0E0,0E0,0E0,0E0,0E0,0E0,0E0,0E0,0E0,0E0,0E0,0E0,0E0,0E0,0E0,0E0,0E0,0E0,0E0,0E0,0E0,0E0,0E0,0E0,0E0,0E0,0E0,0E0,0E0,0E0,0E0,0E0,0E0,0E0,0E0,0E0,0E0,0E0,0E0,0E0,0E0,0E0],"parents":[2147483647,0,0,1,1,2,2,3,3,4,4,5,5,6,6,7,7,8,8,9,9,10,10,11,11,12,12,13,13,14,14,15,15,16,16,17,17,18,18,19,19,20,20,21,21,22,22,23,23,24,24,25,25,26,26,27,27,28,28,29,29,30,30,31,31,32,32,33,33,34,34,35,35,36,36,37,37,38,38,39,39,40,40,41,41,42,42,43,43,44,44,45,45,46,46,47,47,48,48,49,49,50,50,51,51,52,52,53,53,54,54,55,55,56,56,57,57,58,58,59,59,60,60,61,61,62,62],"right_children":[2,4,6,8,10,12,14,16,18,20,22,24,26,28,30,32,34,36,38,40,42,44,46,48,50,52,54,56,58,60,62,64,66,68,70,72,74,76,78,80,82,84,86,88,90,92,94,96,98,100,102,104,106,108,110,112,114,116,118,120,122,124,126,-1,-1,-1,-1,-1,-1,-1,-1,-1,-1,-1,-1,-1,-1,-1,-1,-1,-1,-1,-1,-1,-1,-1,-1,-1,-1,-1,-1,-1,-1,-1,-1,-1,-1,-1,-1,-1,-1,-1,-1,-1,-1,-1,-1,-1,-1,-1,-1,-1,-1,-1,-1,-1,-1,-1,-1,-1,-1,-1,-1,-1,-1,-1,-1],"split_conditions":[6.2608695E0,4.5E0,8.018182E0,1.0483871E2,1.0483871E2,7.111111E0,6E1,6.769231E1,2.4E1,5.18797E0,4E0,1.1285008E2,1.1219512E2,1.5206818E2,9.642858E0,3E0,2E0,1.4683333E2,5E0,3E0,5.6666665E0,7.285714E0,5.304348E0,4.8E1,4E0,5.6E1,1.6366667E2,8.571428E0,1.935E2,8.611765E0,1.42E2,3E0,3.8823528E0,1.135E2,3.4285715E0,5.837209E0,1.7283333E2,1.132987E2,3.6857142E0,1.417255E2,1.12E2,3E0,1.3E1,1.432973E2,2E0,5E0,6E0,6.625E0,5E0,1.6776923E2,6.638298E0,8.79661E0,1.68E2,8.345178E0,2.064E2,1.1285008E2,6.7875E1,1.2149123E2,3.165E2,8.79661E0,8.79661E0,3.165E2,1.09811325E1,-6.079633E0,-8.05908E0,-5.4259896E0,-4.059221E0,-4.051655E0,-2.145579E0,-5.506578E0,-3.9290922E0,-2.007096E0,4.9417425E-2,1.3289934E0,4.350641E0,-4.288774E0,-2.1346557E0,-5.980947E0,-3.966821E0,-2.04547E0,-7.1768844E-1,-2.9526026E0,2.8427688E-3,-9.8666716E-1,-1.8872441E0,-1.4100474E0,-5.835492E-1,-5.007702E-1,4.238115E-1,1.9140099E0,3.583083E-1,-1.6631292E0,-2.70156E0,-4.3437648E-1,-1.2437062E0,-8.122646E-1,7.464333E-1,9.213132E-1,4.3394163E-2,1.4400663E0,3.2466264E0,3.4054583E-1,9.818508E-1,3.1656212E-1,3.5993302E0,1.983244E0,4.933871E0,2.1083808E0,3.0409963E0,3.3017051E0,7.2173357E0,6.3371706E-1,2.186015E0,-1.0052891E1,3.79029E0,2.6673565E0,4.0243406E0,7.104243E0,1.5641118E1,3.4242756E0,4.300466E0,4.611802E0,5.657627E0,5.939014E0,1.6896666E1,7.2683387E0,1.0348365E1],"split_indices":[3,3,3,7,7,3,0,7,2,3,1,7,7,6,3,3,1,6,1,1,3,8,3,0,1,0,6,8,6,3,0,1,3,6,3,8,6,6,3,6,0,1,10,6,1,1,1,8,1,6,3,8,0,8,6,7,6,7,6,8,8,6,3,0,0,0,0,0,0,0,0,0,0,0,0,0,0,0,0,0,0,0,0,0,0,0,0,0,0,0,0,0,0,0,0,0,0,0,0,0,0,0,0,0,0,0,0,0,0,0,0,0,0,0,0,0,0,0,0,0,0,0,0,0,0,0,0],"split_type":[0,0,0,0,0,0,0,0,0,0,0,0,0,0,0,0,0,0,0,0,0,0,0,0,0,0,0,0,0,0,0,0,0,0,0,0,0,0,0,0,0,0,0,0,0,0,0,0,0,0,0,0,0,0,0,0,0,0,0,0,0,0,0,0,0,0,0,0,0,0,0,0,0,0,0,0,0,0,0,0,0,0,0,0,0,0,0,0,0,0,0,0,0,0,0,0,0,0,0,0,0,0,0,0,0,0,0,0,0,0,0,0,0,0,0,0,0,0,0,0,0,0,0,0,0,0,0],"sum_hessian":[4.79435E5,2.57048E5,2.22387E5,1.13455E5,1.43593E5,1.29737E5,9.265E4,8.7045E4,2.641E4,8.1415E4,6.2178E4,6.8361E4,6.1376E4,2.8E4,6.465E4,3.7902E4,4.9143E4,1.5389E4,1.1021E4,3.3363E4,4.8052E4,3.9674E4,2.2504E4,3.4457E4,3.3904E4,2.2808E4,3.8568E4,1.8472E4,9.528E3,4.6138E4,1.8512E4,1.5816E4,2.2086E4,1.9418E4,2.9725E4,1.0002E4,5.387E3,8.022E3,2.999E3,1.4273E4,1.909E4,2.2468E4,2.5584E4,2.4854E4,1.482E4,7.549E3,1.4955E4,8.506E3,2.5951E4,2.1674E4,1.223E4,6.774E3,1.6034E4,3.2373E4,6.195E3,1.5817E4,2.655E3,8.783E3,7.45E2,2.1978E4,2.416E4,9.557E3,8.955E3,7.055E3,8.761E3,1.4303E4,7.783E3,6.406E3,1.3012E4,1.0741E4,1.8984E4,2.046E3,7.956E3,4.818E3,5.69E2,1.088E3,6.934E3,8.97E2,2.102E3,1.1462E4,2.811E3,1.8794E4,2.96E2,9.86E3,1.2608E4,4.673E3,2.0911E4,1.5657E4,9.197E3,7.711E3,7.109E3,2.532E3,5.017E3,9.359E3,5.596E3,4.771E3,3.735E3,1.8236E4,7.715E3,1.9895E4,1.779E3,5.676E3,6.554E3,6.389E3,3.85E2,1.5777E4,2.57E2,2.7113E4,5.26E3,5.979E3,2.16E2,6.119E3,9.698E3,7E0,2.648E3,2.664E3,6.119E3,6.99E2,4.6E1,1.8688E4,3.29E3,1.9557E4,4.603E3,9.486E3,7.1E1,6.283E3,2.672E3],"tree_param":{"num_deleted":"0","num_feature":"11","num_nodes":"127","size_leaf_vector":"1"}},{"base_weights":[1.8033323E-4,-2.3426567E1,2.09072E1,-3.8156612E1,-1.4130607E1,9.5270195E0,3.684909E1,-5.2372997E1,-2.3319956E1,-2.0689846E1,-4.748288E0,3.962847E0,1.6272083E1,2.4003712E1,4.409064E1,-6.848343E1,-4.846581E1,-3.052515E1,-1.631549E1,-2.9866728E1,-1.34702E1,3.730377E0,-1.5306464E1,-1.1687108E-1,8.554366E0,1.1413834E1,1.9433418E1,1.5896562E1,3.289367E1,3.6211803E1,6.370702E1,-8.0467804E1,-5.7089382E1,-3.8598156E1,-5.36528E1,-2.5199331E1,-3.6377285E1,-1.3639157E1,-2.1084898E1,-1.8843134E1,-3.766609E1,-8.295147E0,-1.7869497E1,-6.1000705E0,9.295101E0,-2.6379116E1,-8.216349E0,-5.9957957E0,1.9211549E0,1.5806976E1,5.274282E0,3.7228365E0,1.488108E1,2.2273958E1,1.4028932E1,4.4967117E0,2.0372736E1,3.0408306E1,6.4523766E1,3.0934998E1,4.27946E1,5.575355E1,7.659473E1,-6.2796016E0,-8.343799E0,-4.7591763E0,-5.9906936E0,-4.397857E0,-2.4679143E0,-6.206636E0,-4.6614275E0,-3.2011502E0,-2.2287006E0,-3.8799112E0,-3.010108E0,-1.9611772E0,-9.7252005E-1,-2.357624E0,-1.0595229E0,-2.7411366E0,-1.0298811E0,-4.441155E0,-3.30879E0,-1.1622595E0,2.7576251E-2,-2.23491E0,-1.1325378E0,-2.1259975E0,-3.5831025E-1,1.7507114E0,3.2152322E-1,-4.1993847E0,-2.3071713E0,-3.6619943E-1,-1.3809338E0,-1.3703188E0,-2.7342793E-1,1.6141546E-1,2.593495E0,6.9989467E-1,2.1710658E0,6.8788254E-1,-2.872625E-1,-8.2473814E-1,8.5550225E-1,1.2236094E0,1.8918456E0,2.0470884E0,3.4736085E0,1.1358547E0,1.9112643E0,-2.4881043E0,7.4255484E-1,2.2197163E0,-8.0713063E-1,2.3555048E0,3.4518673E0,6.1014237E0,1.4271197E1,3.487954E0,2.8550508E0,3.918123E0,4.6208453E0,5.5359077E0,1.45023775E1,7.111543E0,1.0759299E1],"categories":[],"categories_nodes":[],"categories_segments":[],"categories_sizes":[],"default_left":[0,0,0,0,0,0,0,0,0,0,0,0,0,0,0,0,0,0,0,0,0,0,0,0,0,0,0,0,0,0,0,0,0,0,0,0,0,0,0,0,0,0,0,0,0,0,0,0,0,0,0,0,0,0,0,0,0,0,0,0,0,0,0,0,0,0,0,0,0,0,0,0,0,0,0,0,0,0,0,0,0,0,0,0,0,0,0,0,0,0,0,0,0,0,0,0,0,0,0,0,0,0,0,0,0,0,0,0,0,0,0,0,0,0,0,0,0,0,0,0,0,0,0,0,0,0,0],"id":2,"left_children":[1,3,5,7,9,11,13,15,17,19,21,23,25,27,29,31,33,35,37,39,41,43,45,47,49,51,53,55,57,59,61,63,65,67,69,71,73,75,77,79,81,83,85,87,89,91,93,95,97,99,101,103,105,107,109,111,113,115,117,119,121,123,125,-1,-1,-1,-1,-1,-1,-1,-1,-1,-1,-1,-1,-1,-1,-1,-1,-1,-1,-1,-1,-1,-1,-1,-1,-1,-1,-1,-1,-1,-1,-1,-1,-1,-1,-1,-1,-1,-1,-1,-1,-1,-1,-1,-1,-1,-1,-1,-1,-1,-1,-1,-1,-1,-1,-1,-1,-1,-1,-1,-1,-1,-1,-1,-1],"loss_changes":[2.3482032E8,3.0958488E7,4.5961544E7,1.844996E7,8.53051E6,5.547797E6,9.81464E6,2.808624E6,2.159908E6,5.40472E6,5.1058765E6,1.5173575E6,1.026038E6,2.741394E6,1.0426856E7,1.18572E6,1.83828E6,6.56716E5,2.768045E5,3.087668E6,1.0394205E6,1.7305546E6,1.9940805E6,5.1392972E5,9.06546E5,7.0242225E5,6.21093E5,1.01536E6,1.42446E6,1.671052E6,1.9776E6,2.17626E5,1.16821E5,9.26954E5,1.3926E6,2.185105E5,1.51605E5,3.249305E5,2.036165E5,1.0895175E6,6.48166E5,5.9842275E5,7.23242E5,4.362491E5,1.0084885E6,5.11135E5,3.944667E5,2.775339E5,2.3477875E5,6.169815E5,3.43083E5,4.7362556E5,1.9366325E5,5.95444E5,1.8913375E5,4.8305603E5,7.416935E5,4.73137E5,3.537795E5,2.5039E5,2.624E5,4.13144E5,1.245156E6,0E0,0E0,0E0,0E0,0E0,0E0,0E0,0E0,0E0,0E0,0E0,0E0,0E0,0E0,0E0,0E0,0E0,0E0,0E0,0E0,0E0,0E0,0E0,0E0,0E0,0E0,0E0,0E0,0E0,0E0,0E0,0E0,0E0,0E0,0E0,0E0,0E0,0E0,0E0,0E0,0E0,0E0,0E0,0E0,0E0,0E0,0E0,0E0,0E0,0E0,0E0,0E0,0E0,0E0,0E0,0E0,0E0,0E0,0E0,0E0,0E0,0E0,0E0,0E0],"parents":[2147483647,0,0,1,1,2,2,3,3,4,4,5,5,6,6,7,7,8,8,9,9,10,10,11,11,12,12,13,13,14,14,15,15,16,16,17,17,18,18,19,19,20,20,21,21,22,22,23,23,24,24,25,25,26,26,27,27,28,28,29,29,30,30,31,31,32,32,33,33,34,34,35,35,36,36,37,37,38,38,39,39,40,40,41,41,42,42,43,43,44,44,45,45,46,46,47,47,48,48,49,49,50,50,51,51,52,52,53,53,54,54,55,55,56,56,57,57,58,58,59,59,60,60,61,61,62,62],"right_children":[2,4,6,8,10,12,14,16,18,20,22,24,26,28,30,32,34,36,38,40,42,44,46,48,50,52,54,56,58,60,62,64,66,68,70,72,74,76,78,80,82,84,86,88,90,92,94,96,98,100,102,104,106,108,110,112,114,116,118,120,122,124,126,-1,-1,-1,-1,-1,-1,-1,-1,-1,-1,-1,-1,-1,-1,-1,-1,-1,-1,-1,-1,-1,-1,-1,-1,-1,-1,-1,-1,-1,-1,-1,-1,-1,-1,-1,-1,-1,-1,-1,-1,-1,-1,-1,-1,-1,-1,-1,-1,-1,-1,-1,-1,-1,-1,-1,-1,-1,-1,-1,-1,-1,-1,-1,-1],"split_conditions":[6E0,8.049281E1,7.818182E0,4E0,1.10805084E2,6.864865E0,7E1,3.3333332E1,4.875E0,4.5E0,3E0,1.1219512E2,6.8207545E0,1.454E2,9.482142E0,2.5714285E0,2E0,4E0,5E0,2E0,3E0,1.3690909E2,4.9473686E0,6.117647E0,2E0,5.8E1,4E0,2.1E1,1.8766667E2,8.571428E0,1.0585366E1,1E0,3E0,1.3062962E2,3.12E0,4.793296E0,8.4E1,5.4E0,1.11E2,1.2845833E2,3.6E0,6.8103447E0,5.414634E0,5.419355E0,1E0,3.6E0,5E0,5.622276E0,1.45E2,6.938389E0,6E0,9.4318184E1,7.369565E0,1.664E2,7.4823527E0,1.0864706E2,3E0,1.23785164E2,3.165E2,3E0,8.94E0,3.165E2,1.935E2,-6.2796016E0,-8.343799E0,-4.7591763E0,-5.9906936E0,-4.397857E0,-2.4679143E0,-6.206636E0,-4.6614275E0,-3.2011502E0,-2.2287006E0,-3.8799112E0,-3.010108E0,-1.9611772E0,-9.7252005E-1,-2.357624E0,-1.0595229E0,-2.7411366E0,-1.0298811E0,-4.441155E0,-3.30879E0,-1.1622595E0,2.7576251E-2,-2.23491E0,-1.1325378E0,-2.1259975E0,-3.5831025E-1,1.7507114E0,3.2152322E-1,-4.1993847E0,-2.3071713E0,-3.6619943E-1,-1.3809338E0,-1.3703188E0,-2.7342793E-1,1.6141546E-1,2.593495E0,6.9989467E-1,2.1710658E0,6.8788254E-1,-2.872625E-1,-8.2473814E-1,8.5550225E-1,1.2236094E0,1.8918456E0,2.0470884E0,3.4736085E0,1.1358547E0,1.9112643E0,-2.4881043E0,7.4255484E-1,2.2197163E0,-8.0713063E-1,2.3555048E0,3.4518673E0,6.1014237E0,1.4271197E1,3.487954E0,2.8550508E0,3.918123E0,4.6208453E0,5.5359077E0,1.45023775E1,7.111543E0,1.0759299E1],"split_indices":[3,7,3,3,7,3,0,7,3,3,1,7,8,6,3,3,1,1,1,1,1,6,3,3,1,0,1,0,6,3,3,1,1,6,3,8,0,8,0,6,3,8,3,8,1,3,1,8,0,8,1,7,3,6,3,6,1,7,6,1,3,6,6,0,0,0,0,0,0,0,0,0,0,0,0,0,0,0,0,0,0,0,0,0,0,0,0,0,0,0,0,0,0,0,0,0,0,0,0,0,0,0,0,0,0,0,0,0,0,0,0,0,0,0,0,0,0,0,0,0,0,0,0,0,0,0,0],"split_type":[0,0,0,0,0,0,0,0,0,0,0,0,0,0,0,0,0,0,0,0,0,0,0,0,0,0,0,0,0,0,0,0,0,0,0,0,0,0,0,0,0,0,0,0,0,0,0,0,0,0,0,0,0,0,0,0,0,0,0,0,0,0,0,0,0,0,0,0,0,0,0,0,0,0,0,0,0,0,0,0,0,0,0,0,0,0,0,0,0,0,0,0,0,0,0,0,0,0,0,0,0,0,0,0,0,0,0,0,0,0,0,0,0,0,0,0,0,0,0,0,0,0,0,0,0,0,0],"sum_hessian":[4.79435E5,2.26093E5,2.53342E5,8.7477E4,1.38616E5,1.47821E5,1.05521E5,4.4671E4,4.2806E4,8.1581E4,5.7035E4,8.1002E4,6.6819E4,3.8043E4,6.7478E4,8.716E3,3.5955E4,2.1099E4,2.1707E4,3.592E4,4.5661E4,3.1633E4,2.5402E4,4.2892E4,3.811E4,2.6342E4,4.0477E4,1.9899E4,1.8144E4,4.8144E4,1.9334E4,4.245E3,4.471E3,1.2391E4,2.3564E4,1.1049E4,1.005E4,1.3907E4,7.8E3,1.4885E4,2.1035E4,2.0982E4,2.4679E4,1.1434E4,2.0199E4,9.915E3,1.5487E4,1.1041E4,3.1851E4,1.1867E4,2.6243E4,8.186E3,1.8156E4,2.653E4,1.3947E4,5.611E3,1.4288E4,1.6824E4,1.32E3,2.6726E4,2.1418E4,1.1959E4,7.375E3,6.14E2,3.631E3,1.027E3,3.444E3,8.935E3,3.456E3,1.073E4,1.2834E4,3.306E3,7.743E3,7.248E3,2.802E3,5.504E3,8.403E3,6.302E3,1.498E3,7.431E3,7.454E3,8.501E3,1.2534E4,1.5114E4,5.868E3,1.4649E4,1.003E4,1.627E3,9.807E3,8.592E3,1.1607E4,1.731E3,8.184E3,8.537E3,6.95E3,3.282E3,7.759E3,3.145E4,4.01E2,4.763E3,7.104E3,2.1925E4,4.318E3,2.354E3,5.832E3,1.0972E4,7.184E3,2.3179E4,3.351E3,9.146E3,4.801E3,5.08E2,5.103E3,1.3427E4,8.61E2,6.31E3,1.0514E4,1.265E3,5.5E1,1.0064E4,1.6662E4,1.0411E4,1.1007E4,1.1908E4,5.1E1,6.27E3,1.105E3],"tree_param":{"num_deleted":"0","num_feature":"11","num_nodes":"127","size_leaf_vector":"1"}},{"base_weights":[1.7912354E-4,-2.1084293E1,1.8816853E1,-3.1837978E1,-1.0735218E1,9.585588E0,3.4827267E1,-4.5066746E1,-1.9913486E1,-1.4685168E0,-1.6288631E1,4.3463154E0,1.662819E1,2.313618E1,4.2074333E1,-3.868816E1,-5.421668E1,-2.5530851E1,-1.2639E1,-1.09336815E1,7.5180717E0,-2.5676071E1,-8.14904E0,2.0512342E-1,8.190849E0,1.4632066E1,2.3425535E1,2.0103697E1,4.3158108E1,3.6264065E1,6.456507E1,-4.6482162E1,-3.1611277E1,-7.3291176E1,-4.864143E1,-2.0929111E1,-3.0960205E1,-1.103466E1,-1.8279316E1,-1.8581762E1,-5.1927323E0,2.2428021E0,1.7473467E1,-2.1521866E1,-3.4681103E1,-5.05858E0,-1.4082836E1,-3.0148423E0,3.7712448E0,1.5642645E1,4.866014E0,1.1802149E1,1.9851768E1,2.8404902E1,1.8582039E1,1.22259245E1,2.527859E1,3.7838936E1,6.204758E1,3.1219332E1,4.3561985E1,6.3216652E1,1.470919E2,-5.4213405E0,-4.032052E0,-3.6977208E0,-2.3949418E0,-8.73967E0,-6.9729743E0,-5.3370013E0,-4.3155127E0,-2.4543228E0,-1.738895E0,-3.4678712E0,-2.6347888E0,-1.3591036E0,-7.030276E-1,-3.0763927E0,-1.6838207E0,-2.5988789E0,-1.2827295E0,-1.2078087E0,7.675331E-3,-1.3603763E-1,1.0171051E0,1.53084E0,4.49386E0,-2.889004E0,-1.5121133E0,-4.5675774E0,-2.8736968E0,-8.53282E-1,2.6781491E-3,-1.8459133E0,-9.106369E-1,-9.982152E-1,-1.4863949E-1,-3.0392322E-1,5.7593185E-1,9.68578E-1,2.3115947E0,1.1850522E-1,8.786379E-1,4.3209392E-1,1.592464E0,1.8925091E0,3.7133338E0,2.7837696E0,7.431769E0,1.5082067E0,2.2379715E0,-5.317471E-2,1.8011814E0,2.7158253E0,4.0943336E-2,2.5972114E0,4.184753E0,5.539047E0,1.0433857E1,2.7588303E0,3.3733952E0,4.1600776E0,5.079942E0,5.3172865E0,7.1009674E0,1.5561397E1,1.305031E1],"categories":[],"categories_nodes":[],"categories_segments":[],"categories_sizes":[],"default_left":[0,0,0,0,0,0,0,0,0,0,0,0,0,0,0,0,0,0,0,0,0,0,0,0,0,0,0,0,0,0,0,0,0,0,0,0,0,0,0,0,0,0,0,0,0,0,0,0,0,0,0,0,0,0,0,0,0,0,0,0,0,0,0,0,0,0,0,0,0,0,0,0,0,0,0,0,0,0,0,0,0,0,0,0,0,0,0,0,0,0,0,0,0,0,0,0,0,0,0,0,0,0,0,0,0,0,0,0,0,0,0,0,0,0,0,0,0,0,0,0,0,0,0,0,0,0,0],"id":3,"left_children":[1,3,5,7,9,11,13,15,17,19,21,23,25,27,29,31,33,35,37,39,41,43,45,47,49,51,53,55,57,59,61,63,65,67,69,71,73,75,77,79,81,83,85,87,89,91,93,95,97,99,101,103,105,107,109,111,113,115,117,119,121,123,125,-1,-1,-1,-1,-1,-1,-1,-1,-1,-1,-1,-1,-1,-1,-1,-1,-1,-1,-1,-1,-1,-1,-1,-1,-1,-1,-1,-1,-1,-1,-1,-1,-1,-1,-1,-1,-1,-1,-1,-1,-1,-1,-1,-1,-1,-1,-1,-1,-1,-1,-1,-1,-1,-1,-1,-1,-1,-1,-1,-1,-1,-1,-1,-1],"loss_changes":[1.9021165E8,2.5161824E7,3.744284E7,1.7489856E7,5.929202E6,5.929195E6,7.848976E6,3.065736E6,2.382668E6,3.6725278E6,5.504516E6,1.4670345E6,9.29754E5,2.151948E6,7.471744E6,1.70708E6,2.292316E6,8.21466E5,2.2975125E5,9.2318525E5,1.1631161E6,1.2508E6,7.0754325E5,5.094108E5,1.18382E6,7.82511E5,3.74717E5,1.2551E6,4.66173E5,1.672116E6,1.297244E6,6.9994E5,6.66707E5,2.39108E5,4.31168E5,2.274825E5,2.57946E5,2.02458E5,1.0070325E5,3.8396E5,4.358599E5,4.1360538E5,4.5545875E5,1.079426E6,6.88824E5,4.4830212E5,2.8761325E5,2.482492E5,2.8502872E5,6.560525E5,4.7682375E5,1.059759E6,2.976145E5,1.97674E5,1.0453425E5,9.0135825E5,8.68757E5,1.72113E5,2.8223175E5,2.44502E5,2.61556E5,9.00572E5,6.26925E3,0E0,0E0,0E0,0E0,0E0,0E0,0E0,0E0,0E0,0E0,0E0,0E0,0E0,0E0,0E0,0E0,0E0,0E0,0E0,0E0,0E0,0E0,0E0,0E0,0E0,0E0,0E0,0E0,0E0,0E0,0E0,0E0,0E0,0E0,0E0,0E0,0E0,0E0,0E0,0E0,0E0,0E0,0E0,0E0,0E0,0E0,0E0,0E0,0E0,0E0,0E0,0E0,0E0,0E0,0E0,0E0,0E0,0E0,0E0,0E0,0E0,0E0,0E0,0E0],"parents":[2147483647,0,0,1,1,2,2,3,3,4,4,5,5,6,6,7,7,8,8,9,9,10,10,11,11,12,12,13,13,14,14,15,15,16,16,17,17,18,18,19,19,20,20,21,21,22,22,23,23,24,24,25,25,26,26,27,27,28,28,29,29,30,30,31,31,32,32,33,33,34,34,35,35,36,36,37,37,38,38,39,39,40,40,41,41,42,42,43,43,44,44,45,45,46,46,47,47,48,48,49,49,50,50,51,51,52,52,53,53,54,54,55,55,56,56,57,57,58,58,59,59,60,60,61,61,62,62],"right_children":[2,4,6,8,10,12,14,16,18,20,22,24,26,28,30,32,34,36,38,40,42,44,46,48,50,52,54,56,58,60,62,64,66,68,70,72,74,76,78,80,82,84,86,88,90,92,94,96,98,100,102,104,106,108,110,112,114,116,118,120,122,124,126,-1,-1,-1,-1,-1,-1,-1,-1,-1,-1,-1,-1,-1,-1,-1,-1,-1,-1,-1,-1,-1,-1,-1,-1,-1,-1,-1,-1,-1,-1,-1,-1,-1,-1,-1,-1,-1,-1,-1,-1,-1,-1,-1,-1,-1,-1,-1,-1,-1,-1,-1,-1,-1,-1,-1,-1,-1,-1,-1,-1,-1,-1,-1,-1],"split_conditions":[6E0,8.769231E1,8.018182E0,4E0,2E0,7.0088496E0,7.5E1,4E0,5.04E0,6.625E0,4.923077E0,1.4E2,8.024316E0,1.6733333E2,1.0021276E1,6.5811966E1,2.5714285E0,4E0,6E0,1.265625E2,1.4788889E2,5E0,5E0,6.4363637E0,2E0,1.4725E2,3E0,3.2E1,1.935E2,8.884615E0,3.165E2,2.64E0,1.2216E2,1.7142857E0,3.3962264E0,5.470588E0,4.580645E0,6.1789775E0,7.7E1,3.9759035E0,1.0604395E2,1.24242424E2,1.8233333E2,1.3163889E2,4.0540543E0,1.417255E2,5.529412E0,5.1975684E0,3.8E1,7.285714E0,6.5E0,6.5E1,1.85E2,2.064E2,7.5555553E0,1.0792079E2,3E0,7.299539E0,9.866667E0,8.347826E0,8.757576E0,1.42E2,2E0,-5.4213405E0,-4.032052E0,-3.6977208E0,-2.3949418E0,-8.73967E0,-6.9729743E0,-5.3370013E0,-4.3155127E0,-2.4543228E0,-1.738895E0,-3.4678712E0,-2.6347888E0,-1.3591036E0,-7.030276E-1,-3.0763927E0,-1.6838207E0,-2.5988789E0,-1.2827295E0,-1.2078087E0,7.675331E-3,-1.3603763E-1,1.0171051E0,1.53084E0,4.49386E0,-2.889004E0,-1.5121133E0,-4.5675774E0,-2.8736968E0,-8.53282E-1,2.6781491E-3,-1.8459133E0,-9.106369E-1,-9.982152E-1,-1.4863949E-1,-3.0392322E-1,5.7593185E-1,9.68578E-1,2.3115947E0,1.1850522E-1,8.786379E-1,4.3209392E-1,1.592464E0,1.8925091E0,3.7133338E0,2.7837696E0,7.431769E0,1.5082067E0,2.2379715E0,-5.317471E-2,1.8011814E0,2.7158253E0,4.0943336E-2,2.5972114E0,4.184753E0,5.539047E0,1.0433857E1,2.7588303E0,3.3733952E0,4.1600776E0,5.079942E0,5.3172865E0,7.1009674E0,1.5561397E1,1.305031E1],"split_indices":[3,7,3,3,1,3,0,1,3,8,3,6,8,6,3,7,3,1,1,6,6,1,1,3,1,6,1,0,6,3,6,3,6,3,3,8,3,8,0,3,7,7,6,6,3,6,3,8,2,8,3,0,6,6,3,7,1,8,8,3,8,0,1,0,0,0,0,0,0,0,0,0,0,0,0,0,0,0,0,0,0,0,0,0,0,0,0,0,0,0,0,0,0,0,0,0,0,0,0,0,0,0,0,0,0,0,0,0,0,0,0,0,0,0,0,0,0,0,0,0,0,0,0,0,0,0,0],"split_type":[0,0,0,0,0,0,0,0,0,0,0,0,0,0,0,0,0,0,0,0,0,0,0,0,0,0,0,0,0,0,0,0,0,0,0,0,0,0,0,0,0,0,0,0,0,0,0,0,0,0,0,0,0,0,0,0,0,0,0,0,0,0,0,0,0,0,0,0,0,0,0,0,0,0,0,0,0,0,0,0,0,0,0,0,0,0,0,0,0,0,0,0,0,0,0,0,0,0,0,0,0,0,0,0,0,0,0,0,0,0,0,0,0,0,0,0,0,0,0,0,0,0,0,0,0,0,0],"sum_hessian":[4.79435E5,2.26093E5,2.53342E5,1.10878E5,1.15215E5,1.60692E5,9.265E4,5.2563E4,5.8315E4,4.3174E4,7.2041E4,9.2144E4,6.8548E4,3.5456E4,5.7194E4,3.0975E4,2.1588E4,3.2904E4,2.5411E4,2.1027E4,2.2147E4,3.3455E4,3.8586E4,4.4361E4,4.7783E4,5.299E4,1.5558E4,3.0794E4,4.662E3,4.5454E4,1.174E4,1.4738E4,1.6237E4,4.88E3,1.6708E4,1.7812E4,1.5092E4,1.9786E4,5.625E3,9.015E3,1.2012E4,1.4477E4,7.67E3,2.2896E4,1.0559E4,2.5373E4,1.3213E4,2.3312E4,2.1049E4,1.4741E4,3.3042E4,3.4363E4,1.8627E4,7.669E3,7.889E3,1.221E4,1.8584E4,3.64E3,1.022E3,2.6879E4,1.8575E4,1.1553E4,1.87E2,6.533E3,8.205E3,9.547E3,6.69E3,9.79E2,3.901E3,8.969E3,7.739E3,8.811E3,9.001E3,8.352E3,6.74E3,1.2075E4,7.711E3,5.8E2,5.045E3,3.94E3,5.075E3,5.207E3,6.805E3,9.954E3,4.523E3,7.111E3,5.59E2,1.0642E4,1.2254E4,3.703E3,6.856E3,1.5074E4,1.0299E4,7.029E3,6.184E3,4.193E3,1.9119E4,4.756E3,1.6293E4,8.204E3,6.537E3,1.7042E4,1.6E4,1.2209E4,2.2154E4,1.7681E4,9.46E2,7.577E3,9.2E1,4.108E3,3.781E3,3.81E3,8.4E3,1.7278E4,1.306E3,9.21E2,2.719E3,8.85E2,1.37E2,1.1003E4,1.5876E4,1.462E4,3.955E3,5.051E3,6.502E3,1.18E2,6.9E1],"tree_param":{"num_deleted":"0","num_feature":"11","num_nodes":"127","size_leaf_vector":"1"}},{"base_weights":[2.3865403E-4,-1.7074747E1,1.8859901E1,-2.8332466E1,-7.830468E0,1.1238986E1,3.3026154E1,-3.457034E1,-7.772464E0,-1.2235622E1,-1.6105486E0,6.474838E0,1.7347107E1,1.8452888E1,3.877643E1,-4.3919094E1,-2.8482237E1,2.1329398E0,-2.3586067E1,-1.7789717E1,-8.200698E0,7.6180253E0,-5.9034386E0,2.8725154E0,9.44951E0,1.3434855E1,2.0235697E1,7.189745E0,2.3861061E1,3.3489502E1,5.5077286E1,-5.3505867E1,-3.6778305E1,-2.250276E1,-3.5652378E1,-1.2179142E0,2.0300112E1,-1.9100761E1,-3.434322E1,-1.2997438E1,-2.1425291E1,-5.7795744E0,-1.1977732E1,5.844596E0,3.0766773E1,-2.5169127E0,-1.2433574E1,-2.942675E0,4.4096203E0,1.273715E1,3.9141963E0,6.266452E0,1.7632967E1,1.912175E1,3.067925E1,-3.9881659E0,1.46578865E1,2.051329E1,4.1413696E1,2.9903954E1,3.928073E1,4.142172E1,6.2672947E1,-3.6440456E0,-5.7213697E0,-4.1813645E0,-3.2328267E0,-3.007139E0,-1.6372498E0,-4.9330807E0,-3.2253532E0,4.8739296E-1,-9.494187E-1,1.2347679E0,2.882256E0,-3.3993146E0,-1.6677477E0,-5.881604E0,-3.2090478E0,-1.5392171E0,-5.008568E-1,-2.1812277E0,3.4751874E-1,-1.1997708E0,-3.0947277E-1,-1.4640123E0,-8.0576813E-1,1.8181786E-1,1.3583052E0,2.8168895E0,7.383307E0,-6.694344E-1,1.3378541E-1,-2.0991938E0,-8.461265E-1,-9.658146E-1,4.7609526E-1,1.3225302E-1,7.5455326E-1,9.732199E-1,1.7753845E0,-1.3044955E-2,6.5293497E-1,-1.274435E-1,1.0596541E0,1.719228E0,4.0789456E0,1.7894871E0,2.6163902E0,2.8535461E0,5.539795E0,-1.0153862E0,5.819468E-1,5.316434E-1,2.0273094E0,1.8015856E0,3.5121727E0,4.01533E0,1.179472E1,2.8451202E0,3.7074285E0,3.396384E0,4.3357763E0,4.7667627E0,2.1429403E0,5.6134496E0,7.7502036E0],"categories":[],"categories_nodes":[],"categories_segments":[],"categories_sizes":[],"default_left":[0,0,0,0,0,0,0,0,0,0,0,0,0,0,0,0,0,0,0,0,0,0,0,0,0,0,0,0,0,0,0,0,0,0,0,0,0,0,0,0,0,0,0,0,0,0,0,0,0,0,0,0,0,0,0,0,0,0,0,0,0,0,0,0,0,0,0,0,0,0,0,0,0,0,0,0,0,0,0,0,0,0,0,0,0,0,0,0,0,0,0,0,0,0,0,0,0,0,0,0,0,0,0,0,0,0,0,0,0,0,0,0,0,0,0,0,0,0,0,0,0,0,0,0,0,0,0],"id":4,"left_children":[1,3,5,7,9,11,13,15,17,19,21,23,25,27,29,31,33,35,37,39,41,43,45,47,49,51,53,55,57,59,61,63,65,67,69,71,73,75,77,79,81,83,85,87,89,91,93,95,97,99,101,103,105,107,109,111,113,115,117,119,121,123,125,-1,-1,-1,-1,-1,-1,-1,-1,-1,-1,-1,-1,-1,-1,-1,-1,-1,-1,-1,-1,-1,-1,-1,-1,-1,-1,-1,-1,-1,-1,-1,-1,-1,-1,-1,-1,-1,-1,-1,-1,-1,-1,-1,-1,-1,-1,-1,-1,-1,-1,-1,-1,-1,-1,-1,-1,-1,-1,-1,-1,-1,-1,-1,-1],"loss_changes":[1.5439237E8,2.6186152E7,2.459428E7,1.4550544E7,3.78577E6,4.310412E6,6.676992E6,4.953072E6,4.137073E6,1.812492E6,2.2695588E6,8.9174625E5,7.33246E5,1.373295E6,4.922472E6,2.348028E6,2.259456E6,9.886435E5,4.90134E5,5.92686E5,4.2836725E5,7.464864E5,8.6462225E5,3.3646922E5,8.2943925E5,8.296345E5,4.33776E5,6.107851E5,8.94275E5,8.94784E5,1.4487E6,9.25024E5,4.39558E5,1.333394E6,1.112844E6,6.913747E5,1.7104494E5,2.5858425E5,1.6306475E5,2.808455E5,1.86544E5,4.7663106E5,1.9087375E5,5.26394E5,1.4269425E5,4.1462956E5,4.5374338E5,4.0718853E5,2.8820806E5,4.309095E5,1.7966803E5,3.325813E5,1.7674E5,2.9105E5,1.8903025E5,1.7729927E5,2.2995638E5,4.661755E5,2.3053675E5,2.7658E5,3.56112E5,6.2383E5,8.67216E5,0E0,0E0,0E0,0E0,0E0,0E0,0E0,0E0,0E0,0E0,0E0,0E0,0E0,0E0,0E0,0E0,0E0,0E0,0E0,0E0,0E0,0E0,0E0,0E0,0E0,0E0,0E0,0E0,0E0,0E0,0E0,0E0,0E0,0E0,0E0,0E0,0E0,0E0,0E0,0E0,0E0,0E0,0E0,0E0,0E0,0E0,0E0,0E0,0E0,0E0,0E0,0E0,0E0,0E0,0E0,0E0,0E0,0E0,0E0,0E0,0E0,0E0,0E0,0E0],"parents":[2147483647,0,0,1,1,2,2,3,3,4,4,5,5,6,6,7,7,8,8,9,9,10,10,11,11,12,12,13,13,14,14,15,15,16,16,17,17,18,18,19,19,20,20,21,21,22,22,23,23,24,24,25,25,26,26,27,27,28,28,29,29,30,30,31,31,32,32,33,33,34,34,35,35,36,36,37,37,38,38,39,39,40,40,41,41,42,42,43,43,44,44,45,45,46,46,47,47,48,48,49,49,50,50,51,51,52,52,53,53,54,54,55,55,56,56,57,57,58,58,59,59,60,60,61,61,62,62],"right_children":[2,4,6,8,10,12,14,16,18,20,22,24,26,28,30,32,34,36,38,40,42,44,46,48,50,52,54,56,58,60,62,64,66,68,70,72,74,76,78,80,82,84,86,88,90,92,94,96,98,100,102,104,106,108,110,112,114,116,118,120,122,124,126,-1,-1,-1,-1,-1,-1,-1,-1,-1,-1,-1,-1,-1,-1,-1,-1,-1,-1,-1,-1,-1,-1,-1,-1,-1,-1,-1,-1,-1,-1,-1,-1,-1,-1,-1,-1,-1,-1,-1,-1,-1,-1,-1,-1,-1,-1,-1,-1,-1,-1,-1,-1,-1,-1,-1,-1,-1,-1,-1,-1,-1,-1,-1,-1],"split_conditions":[6.193548E0,4.5E0,8.27027E0,1.0483871E2,1.05454544E2,7.2352943E0,5.5E1,6.47619E1,2.7E1,5.18797E0,2E0,1.4E2,1.1646932E2,6.853608E0,1.0021276E1,3E0,3E0,1.5773334E2,5E0,3E0,4E0,1.6776923E2,5E0,4.1E1,4E0,6.9E1,1.6823529E2,1.0792079E2,1.6733333E2,9.07826E0,1.09E2,1E0,3.6E0,1.2019512E2,3.0612245E0,1E0,1.2742796E2,1.132987E2,2.9230769E0,1.4091667E2,1.12E2,1.2019512E2,5.7534246E0,7.4006968E0,2.064E2,5.529412E0,5.2105265E0,1.0659062E2,6.6666665E0,7.468354E0,6.571429E0,6.3333335E0,1.31E2,8.590909E0,2.064E2,2.5E1,1.3477272E2,9.067164E0,3.165E2,8.79661E0,1.18E2,2E0,1.1225806E1,-3.6440456E0,-5.7213697E0,-4.1813645E0,-3.2328267E0,-3.007139E0,-1.6372498E0,-4.9330807E0,-3.2253532E0,4.8739296E-1,-9.494187E-1,1.2347679E0,2.882256E0,-3.3993146E0,-1.6677477E0,-5.881604E0,-3.2090478E0,-1.5392171E0,-5.008568E-1,-2.1812277E0,3.4751874E-1,-1.1997708E0,-3.0947277E-1,-1.4640123E0,-8.0576813E-1,1.8181786E-1,1.3583052E0,2.8168895E0,7.383307E0,-6.694344E-1,1.3378541E-1,-2.0991938E0,-8.461265E-1,-9.658146E-1,4.7609526E-1,1.3225302E-1,7.5455326E-1,9.732199E-1,1.7753845E0,-1.3044955E-2,6.5293497E-1,-1.274435E-1,1.0596541E0,1.719228E0,4.0789456E0,1.7894871E0,2.6163902E0,2.8535461E0,5.539795E0,-1.0153862E0,5.819468E-1,5.316434E-1,2.0273094E0,1.8015856E0,3.5121727E0,4.01533E0,1.179472E1,2.8451202E0,3.7074285E0,3.396384E0,4.3357763E0,4.7667627E0,2.1429403E0,5.6134496E0,7.7502036E0],"split_indices":[3,3,3,7,7,3,0,7,2,3,1,6,7,8,3,3,1,6,1,1,1,6,1,0,1,0,6,7,6,3,0,1,3,6,3,1,7,6,3,6,0,6,3,8,6,3,3,7,3,8,3,8,2,8,6,0,6,8,6,8,0,1,3,0,0,0,0,0,0,0,0,0,0,0,0,0,0,0,0,0,0,0,0,0,0,0,0,0,0,0,0,0,0,0,0,0,0,0,0,0,0,0,0,0,0,0,0,0,0,0,0,0,0,0,0,0,0,0,0,0,0,0,0,0,0,0,0],"split_type":[0,0,0,0,0,0,0,0,0,0,0,0,0,0,0,0,0,0,0,0,0,0,0,0,0,0,0,0,0,0,0,0,0,0,0,0,0,0,0,0,0,0,0,0,0,0,0,0,0,0,0,0,0,0,0,0,0,0,0,0,0,0,0,0,0,0,0,0,0,0,0,0,0,0,0,0,0,0,0,0,0,0,0,0,0,0,0,0,0,0,0,0,0,0,0,0,0,0,0,0,0,0,0,0,0,0,0,0,0,0,0,0,0,0,0,0,0,0,0,0,0,0,0,0,0,0,0],"sum_hessian":[4.79435E5,2.51623E5,2.27812E5,1.13455E5,1.38168E5,1.48127E5,7.9685E4,8.7045E4,2.641E4,8.0883E4,5.7285E4,8.322E4,6.4907E4,2.2547E4,5.7138E4,3.4327E4,5.2718E4,1.6239E4,1.0171E4,3.4033E4,4.685E4,1.8187E4,3.9098E4,3.764E4,4.558E4,2.7571E4,3.7336E4,7.315E3,1.5232E4,4.3147E4,1.3991E4,1.4651E4,1.9676E4,2.8748E4,2.397E4,1.3711E4,2.528E3,7.18E3,2.991E3,1.4683E4,1.935E4,2.8551E4,1.8299E4,1.6894E4,1.293E3,2.5747E4,1.3351E4,7.869E3,2.9771E4,2.8595E4,1.6985E4,1.0184E4,1.7387E4,3.374E4,3.596E3,2.93E3,4.385E3,1.2794E4,2.438E3,2.6652E4,1.6495E4,5.003E3,8.988E3,2.617E3,1.2034E4,9.227E3,1.0449E4,1.2863E4,1.5885E4,4.768E3,1.9202E4,7.898E3,5.813E3,1.309E3,1.219E3,1.003E3,6.177E3,2.5E2,2.741E3,1.1296E4,3.387E3,1.9054E4,2.96E2,8.609E3,1.9942E4,1.0896E4,7.403E3,1.1113E4,5.781E3,1.221E3,7.2E1,1.2356E4,1.3391E4,4.231E3,9.12E3,4.204E3,3.665E3,1.5003E4,1.4768E4,1.7885E4,1.071E4,6.67E3,1.0315E4,3.715E3,6.469E3,1.7064E4,3.23E2,2.8737E4,5.003E3,3.311E3,2.85E2,1.799E3,1.131E3,1.647E3,2.738E3,1.0928E4,1.866E3,2.4E3,3.8E1,2.2166E4,4.486E3,7.163E3,9.332E3,3.811E3,1.192E3,6.241E3,2.747E3],"tree_param":{"num_deleted":"0","num_feature":"11","num_nodes":"127","size_leaf_vector":"1"}},{"base_weights":[3.0203143E-4,-1.5479353E1,1.6854195E1,-2.5499573E1,-7.147709E0,9.507675E0,2.886546E1,-3.1266314E1,-7.460501E0,-1.0406196E1,-1.7217527E-1,5.728258E0,1.5091856E1,1.9939913E1,3.6005116E1,-3.8852497E1,-2.528399E1,3.4565523E0,-1.927861E1,-1.4131247E1,-5.5841236E0,4.5688004E0,-8.557162E0,3.0208695E0,9.194713E0,1.0628045E1,1.722966E1,1.4857425E1,2.8954557E1,3.122422E1,5.545086E1,-4.935374E1,-3.3608852E1,-1.813701E1,-2.9976995E1,-5.1187825E0,1.0066433E1,-1.3668096E1,-2.77994E1,-9.745698E0,-1.7610363E1,-3.4374487E0,-9.034296E0,6.708041E-2,1.1128091E1,-1.5492378E1,-4.7935543E0,1.4318748E0,7.3315163E0,8.513948E0,2.763002E1,2.0631235E0,1.4942507E1,1.6589294E1,3.3731323E1,1.2270456E1,2.9025684E1,2.6366625E1,4.9728058E1,2.6596756E1,3.6669415E1,5.405639E1,1.2652498E2,-3.2405689E0,-5.386986E0,-3.8126285E0,-2.8563812E0,-2.7769423E0,-1.3845797E0,-3.7377815E0,-2.594525E0,-2.0481288E0,-1.91938E-1,6.648211E-1,2.2192173E0,-2.1837249E0,-8.783207E-1,-3.749852E0,-2.2733366E0,-1.3989373E0,-4.419961E-1,-2.0923517E0,-1.5171771E0,-1.0884604E0,-1.385048E-1,-1.7168944E0,-8.0284214E-1,8.2302743E-1,-2.5265622E-1,9.595146E-1,4.0499687E0,-1.3283885E0,-2.3065093E0,-2.4320343E-1,-8.848614E-1,-6.309307E-1,3.0037394E-1,1.2845404E0,3.258352E-1,1.1039336E0,4.1262007E-1,4.1066246E0,1.849039E0,-1.2858484E0,4.3206716E-1,1.3331014E0,2.2153387E0,1.3251402E0,1.8527895E0,3.9205074E0,1.8998457E0,2.894871E-1,1.5843625E0,3.1015458E0,-3.5362515E-1,2.1755378E0,3.1556277E0,4.691709E0,1.1200854E1,3.0827873E0,2.4266415E0,3.4965634E0,4.2514057E0,4.919177E0,6.9094567E0,1.3426889E1,1.1210597E1],"categories":[],"categories_nodes":[],"categories_segments":[],"categories_sizes":[],"default_left":[0,0,0,0,0,0,0,0,0,0,0,0,0,0,0,0,0,0,0,0,0,0,0,0,0,0,0,0,0,0,0,0,0,0,0,0,0,0,0,0,0,0,0,0,0,0,0,0,0,0,0,0,0,0,0,0,0,0,0,0,0,0,0,0,0,0,0,0,0,0,0,0,0,0,0,0,0,0,0,0,0,0,0,0,0,0,0,0,0,0,0,0,0,0,0,0,0,0,0,0,0,0,0,0,0,0,0,0,0,0,0,0,0,0,0,0,0,0,0,0,0,0,0,0,0,0,0],"id":5,"left_children":[1,3,5,7,9,11,13,15,17,19,21,23,25,27,29,31,33,35,37,39,41,43,45,47,49,51,53,55,57,59,61,63,65,67,69,71,73,75,77,79,81,83,85,87,89,91,93,95,97,99,101,103,105,107,109,111,113,115,117,119,121,123,125,-1,-1,-1,-1,-1,-1,-1,-1,-1,-1,-1,-1,-1,-1,-1,-1,-1,-1,-1,-1,-1,-1,-1,-1,-1,-1,-1,-1,-1,-1,-1,-1,-1,-1,-1,-1,-1,-1,-1,-1,-1,-1,-1,-1,-1,-1,-1,-1,-1,-1,-1,-1,-1,-1,-1,-1,-1,-1,-1,-1,-1,-1,-1,-1],"loss_changes":[1.2508149E8,2.0863276E7,2.025368E7,1.1802224E7,3.1015095E6,3.005723E6,5.550336E6,3.90068E6,3.546152E6,1.670537E6,1.7271886E6,7.9711875E5,5.48382E5,1.773368E6,4.497452E6,2.085464E6,1.611762E6,8.099231E5,6.305635E5,8.00423E5,3.0019462E5,8.195514E5,4.095355E5,3.2666038E5,4.6721825E5,6.879605E5,4.10161E5,9.07131E5,7.49023E5,9.77872E5,9.39568E5,9.64258E5,5.75128E5,7.872905E5,8.64786E5,3.0567888E5,3.343003E5,3.1745525E5,2.5657125E5,5.2459075E5,2.3607E5,3.8194584E5,1.27074375E5,3.485186E5,5.08214E5,9.2011625E4,9.7405766E4,4.240525E5,2.8844362E5,3.9799725E5,1.6207625E5,2.1019038E5,1.435755E5,2.41881E5,1.1626975E5,7.0138875E5,2.477405E5,2.96366E5,2.65226E5,2.06349E5,1.76204E5,6.81844E5,5.38125E3,0E0,0E0,0E0,0E0,0E0,0E0,0E0,0E0,0E0,0E0,0E0,0E0,0E0,0E0,0E0,0E0,0E0,0E0,0E0,0E0,0E0,0E0,0E0,0E0,0E0,0E0,0E0,0E0,0E0,0E0,0E0,0E0,0E0,0E0,0E0,0E0,0E0,0E0,0E0,0E0,0E0,0E0,0E0,0E0,0E0,0E0,0E0,0E0,0E0,0E0,0E0,0E0,0E0,0E0,0E0,0E0,0E0,0E0,0E0,0E0,0E0,0E0,0E0,0E0],"parents":[2147483647,0,0,1,1,2,2,3,3,4,4,5,5,6,6,7,7,8,8,9,9,10,10,11,11,12,12,13,13,14,14,15,15,16,16,17,17,18,18,19,19,20,20,21,21,22,22,23,23,24,24,25,25,26,26,27,27,28,28,29,29,30,30,31,31,32,32,33,33,34,34,35,35,36,36,37,37,38,38,39,39,40,40,41,41,42,42,43,43,44,44,45,45,46,46,47,47,48,48,49,49,50,50,51,51,52,52,53,53,54,54,55,55,56,56,57,57,58,58,59,59,60,60,61,61,62,62],"right_children":[2,4,6,8,10,12,14,16,18,20,22,24,26,28,30,32,34,36,38,40,42,44,46,48,50,52,54,56,58,60,62,64,66,68,70,72,74,76,78,80,82,84,86,88,90,92,94,96,98,100,102,104,106,108,110,112,114,116,118,120,122,124,126,-1,-1,-1,-1,-1,-1,-1,-1,-1,-1,-1,-1,-1,-1,-1,-1,-1,-1,-1,-1,-1,-1,-1,-1,-1,-1,-1,-1,-1,-1,-1,-1,-1,-1,-1,-1,-1,-1,-1,-1,-1,-1,-1,-1,-1,-1,-1,-1,-1,-1,-1,-1,-1,-1,-1,-1,-1,-1,-1,-1,-1,-1,-1,-1],"split_conditions":[6.1682243E0,4.5E0,8.126582E0,1.04081635E2,1.1285008E2,7.2352943E0,8.6E1,6.769231E1,2E1,5.4375E0,4E0,1.1646932E2,1.3827272E2,1.5206818E2,1.0153846E1,2.7169812E0,2E0,6.8644066E0,4E0,3E0,4E0,1.45E2,5.304348E0,7.377432E0,1.7283333E2,6.2E1,1.85E2,8.571428E0,1.8766667E2,8.884615E0,3.165E2,1E0,3.6E0,1.132987E2,3.3962264E0,1.18117645E2,1.5773334E2,6.209607E0,3.7272727E0,1.3153334E2,4.8990827E0,5.129032E0,6.6E1,1E0,1.8233333E2,7E0,6E0,3.6E1,3E0,4E0,5.3E1,5.25E0,8.129032E0,1.1646932E2,4E0,2.3E1,3E0,2.8E1,3.165E2,3E0,8.757576E0,1.1590909E1,2E0,-3.2405689E0,-5.386986E0,-3.8126285E0,-2.8563812E0,-2.7769423E0,-1.3845797E0,-3.7377815E0,-2.594525E0,-2.0481288E0,-1.91938E-1,6.648211E-1,2.2192173E0,-2.1837249E0,-8.783207E-1,-3.749852E0,-2.2733366E0,-1.3989373E0,-4.419961E-1,-2.0923517E0,-1.5171771E0,-1.0884604E0,-1.385048E-1,-1.7168944E0,-8.0284214E-1,8.2302743E-1,-2.5265622E-1,9.595146E-1,4.0499687E0,-1.3283885E0,-2.3065093E0,-2.4320343E-1,-8.848614E-1,-6.309307E-1,3.0037394E-1,1.2845404E0,3.258352E-1,1.1039336E0,4.1262007E-1,4.1066246E0,1.849039E0,-1.2858484E0,4.3206716E-1,1.3331014E0,2.2153387E0,1.3251402E0,1.8527895E0,3.9205074E0,1.8998457E0,2.894871E-1,1.5843625E0,3.1015458E0,-3.5362515E-1,2.1755378E0,3.1556277E0,4.691709E0,1.1200854E1,3.0827873E0,2.4266415E0,3.4965634E0,4.2514057E0,4.919177E0,6.9094567E0,1.3426889E1,1.1210597E1],"split_indices":[3,3,3,7,7,3,0,7,2,3,1,7,6,6,3,3,1,8,1,1,1,6,3,8,6,0,6,8,6,3,6,1,3,6,3,6,6,8,3,6,3,8,0,1,6,1,1,0,1,1,0,8,8,7,1,0,1,10,6,1,8,3,1,0,0,0,0,0,0,0,0,0,0,0,0,0,0,0,0,0,0,0,0,0,0,0,0,0,0,0,0,0,0,0,0,0,0,0,0,0,0,0,0,0,0,0,0,0,0,0,0,0,0,0,0,0,0,0,0,0,0,0,0,0,0,0,0],"split_type":[0,0,0,0,0,0,0,0,0,0,0,0,0,0,0,0,0,0,0,0,0,0,0,0,0,0,0,0,0,0,0,0,0,0,0,0,0,0,0,0,0,0,0,0,0,0,0,0,0,0,0,0,0,0,0,0,0,0,0,0,0,0,0,0,0,0,0,0,0,0,0,0,0,0,0,0,0,0,0,0,0,0,0,0,0,0,0,0,0,0,0,0,0,0,0,0,0,0,0,0,0,0,0,0,0,0,0,0,0,0,0,0,0,0,0,0,0,0,0,0,0,0,0,0,0,0,0],"sum_hessian":[4.79435E5,2.49906E5,2.29529E5,1.13455E5,1.36451E5,1.42421E5,8.7108E4,8.5971E4,2.7484E4,9.3005E4,4.3446E4,8.4937E4,5.7484E4,3.8714E4,4.8394E4,3.7902E4,4.8069E4,1.4287E4,1.3197E4,5.247E4,4.0535E4,2.7754E4,1.5692E4,4.7691E4,3.7246E4,1.8617E4,3.8867E4,2.4758E4,1.3956E4,3.8846E4,9.548E3,1.262E4,2.5282E4,1.9055E4,2.9014E4,6.219E3,8.068E3,7.959E3,5.238E3,2.3213E4,2.9257E4,2.4989E4,1.5546E4,1.6459E4,1.1295E4,5.519E3,1.0173E4,3.4847E4,1.2844E4,3.5921E4,1.325E3,6.237E3,1.238E4,3.7417E4,1.45E3,2.0937E4,3.821E3,1.2412E4,1.544E3,2.1003E4,1.7843E4,9.366E3,1.82E2,2.657E3,9.963E3,1.3335E4,1.1947E4,5.871E3,1.3184E4,1.0229E4,1.8785E4,1.071E3,5.148E3,6.295E3,1.773E3,2.977E3,4.982E3,1.795E3,3.443E3,1.2918E4,1.0295E4,1.2401E4,1.6856E4,5.398E3,1.9591E4,1.709E3,1.3837E4,3.968E3,1.2491E4,1.0736E4,5.59E2,4.275E3,1.244E3,6.43E3,3.743E3,5.881E3,2.8966E4,5.456E3,7.388E3,2.2798E4,1.3123E4,5.35E2,7.9E2,8.19E2,5.418E3,1.0121E4,2.259E3,1.375E4,2.3667E4,1.056E3,3.94E2,5.778E3,1.5159E4,3.601E3,2.2E2,6.575E3,5.837E3,1.479E3,6.5E1,7.455E3,1.3548E4,1.3821E4,4.022E3,7.08E3,2.286E3,1.13E2,6.9E1],"tree_param":{"num_deleted":"0","num_feature":"11","num_nodes":"127","size_leaf_vector":"1"}},{"base_weights":[3.8469635E-4,-1.3112336E1,1.6147835E1,-2.3980846E1,-6.4163423E0,1.030052E1,2.7681581E1,-2.9361338E1,-6.5844717E0,-1.0927927E1,-1.5439812E0,6.500049E0,1.5100969E1,1.4792784E1,3.2528435E1,-2.5276354E1,-3.9436626E1,3.6959996E0,-1.8377056E1,-6.9759827E0,-1.6857498E1,-3.8269355E0,3.8674345E0,4.4115496E0,1.0832528E1,1.0165725E1,1.7366776E1,4.2263904E0,1.9420368E1,2.8593878E1,4.686944E1,-3.1489998E1,-1.9253098E1,-5.3428757E1,-3.4685593E1,-2.0883725E0,1.21752205E1,-1.4830702E1,-3.1354265E1,-1.0805288E1,1.3484803E0,-1.9148256E1,-1.2591373E1,-9.390268E-1,-6.4054427E0,9.657746E0,-9.8623234E-1,2.4325008E0,7.542112E0,1.6626455E1,8.326464E0,7.674637E0,2.670282E1,1.9866068E1,1.388442E1,-4.962234E0,1.0580797E1,1.6576214E1,3.456628E1,2.5413643E1,3.3214325E1,3.652683E1,5.5666866E1,-4.0193095E0,-2.7722316E0,-2.800717E0,-1.4175438E0,-6.34711E0,-4.92791E0,-3.7966046E0,-3.0222623E0,-2.1946237E0,3.0452117E-2,1.6797329E0,8.4493056E-2,-2.7571304E0,-1.1765337E0,-4.9711375E0,-2.902202E0,-1.5416319E0,-8.444436E-1,1.1215806E0,-1.7583244E-1,-1.7197312E0,-2.4334803E0,-1.0987974E0,-1.704505E0,-4.4615474E-1,3.8371953E-1,-6.734371E-1,1.3196435E0,8.7417555E-1,4.31819E0,8.091248E-2,-6.3714284E-1,-1.6991599E-1,6.1837757E-1,9.545976E-1,1.7865005E-1,1.5085187E0,3.1295955E0,1.0296214E0,3.9144838E-1,6.12746E-1,2.479222E0,2.3591712E0,3.8334816E0,1.8168706E0,2.5402238E0,9.8524773E-1,1.6173166E0,-1.7998899E0,-4.9350125E-4,1.6589233E-1,1.5944418E0,1.833993E0,-3.3845526E-1,3.3547916E0,9.40291E0,2.4687605E0,3.8141353E0,2.7674484E0,3.6616707E0,3.973452E0,1.2983887E-1,5.4182525E0,1.1426359E1],"categories":[],"categories_nodes":[],"categories_segments":[],"categories_sizes":[],"default_left":[0,0,0,0,0,0,0,0,0,0,0,0,0,0,0,0,0,0,0,0,0,0,0,0,0,0,0,0,0,0,0,0,0,0,0,0,0,0,0,0,0,0,0,0,0,0,0,0,0,0,0,0,0,0,0,0,0,0,0,0,0,0,0,0,0,0,0,0,0,0,0,0,0,0,0,0,0,0,0,0,0,0,0,0,0,0,0,0,0,0,0,0,0,0,0,0,0,0,0,0,0,0,0,0,0,0,0,0,0,0,0,0,0,0,0,0,0,0,0,0,0,0,0,0,0,0,0],"id":6,"left_children":[1,3,5,7,9,11,13,15,17,19,21,23,25,27,29,31,33,35,37,39,41,43,45,47,49,51,53,55,57,59,61,63,65,67,69,71,73,75,77,79,81,83,85,87,89,91,93,95,97,99,101,103,105,107,109,111,113,115,117,119,121,123,125,-1,-1,-1,-1,-1,-1,-1,-1,-1,-1,-1,-1,-1,-1,-1,-1,-1,-1,-1,-1,-1,-1,-1,-1,-1,-1,-1,-1,-1,-1,-1,-1,-1,-1,-1,-1,-1,-1,-1,-1,-1,-1,-1,-1,-1,-1,-1,-1,-1,-1,-1,-1,-1,-1,-1,-1,-1,-1,-1,-1,-1,-1,-1,-1],"loss_changes":[1.0151456E8,1.9254856E7,1.4489916E7,9.44078E6,3.5988435E6,2.601054E6,4.51492E6,3.169636E6,2.8888155E6,1.991856E6,9.7243644E5,7.20004E5,7.04297E5,9.658765E5,2.96252E6,2.05096E6,1.4754E6,6.2444244E5,5.10285E5,1.6260878E6,3.3199E5,4.1222444E5,6.563841E5,3.3265706E5,3.756815E5,8.164929E5,3.75494E5,3.5143306E5,5.91223E5,6.04864E5,1.02677E6,8.83574E5,1.236963E6,2.31528E5,2.4177E5,3.5966856E5,2.703712E5,3.4015362E5,1.0049575E5,3.802145E5,4.9275128E5,2.233765E5,8.4648E4,4.3936794E5,1.88656E5,3.2666075E5,1.228512E5,5.099274E5,2.3984438E5,1.7619975E5,1.5699688E5,4.561927E5,9.30045E4,2.35711E5,1.66343E5,1.5904612E5,1.7023644E5,4.0731525E5,1.2831025E5,2.24718E5,3.15682E5,5.87558E5,5.25068E5,0E0,0E0,0E0,0E0,0E0,0E0,0E0,0E0,0E0,0E0,0E0,0E0,0E0,0E0,0E0,0E0,0E0,0E0,0E0,0E0,0E0,0E0,0E0,0E0,0E0,0E0,0E0,0E0,0E0,0E0,0E0,0E0,0E0,0E0,0E0,0E0,0E0,0E0,0E0,0E0,0E0,0E0,0E0,0E0,0E0,0E0,0E0,0E0,0E0,0E0,0E0,0E0,0E0,0E0,0E0,0E0,0E0,0E0,0E0,0E0,0E0,0E0,0E0,0E0],"parents":[2147483647,0,0,1,1,2,2,3,3,4,4,5,5,6,6,7,7,8,8,9,9,10,10,11,11,12,12,13,13,14,14,15,15,16,16,17,17,18,18,19,19,20,20,21,21,22,22,23,23,24,24,25,25,26,26,27,27,28,28,29,29,30,30,31,31,32,32,33,33,34,34,35,35,36,36,37,37,38,38,39,39,40,40,41,41,42,42,43,43,44,44,45,45,46,46,47,47,48,48,49,49,50,50,51,51,52,52,53,53,54,54,55,55,56,56,57,57,58,58,59,59,60,60,61,61,62,62],"right_children":[2,4,6,8,10,12,14,16,18,20,22,24,26,28,30,32,34,36,38,40,42,44,46,48,50,52,54,56,58,60,62,64,66,68,70,72,74,76,78,80,82,84,86,88,90,92,94,96,98,100,102,104,106,108,110,112,114,116,118,120,122,124,126,-1,-1,-1,-1,-1,-1,-1,-1,-1,-1,-1,-1,-1,-1,-1,-1,-1,-1,-1,-1,-1,-1,-1,-1,-1,-1,-1,-1,-1,-1,-1,-1,-1,-1,-1,-1,-1,-1,-1,-1,-1,-1,-1,-1,-1,-1,-1,-1,-1,-1,-1,-1,-1,-1,-1,-1,-1,-1,-1,-1,-1,-1,-1,-1],"split_conditions":[6.352941E0,4.285714E0,8.414634E0,1.04081635E2,5.4545455E0,7.369565E0,5.3E1,5E0,1.8E1,4E0,1.1875E2,1.4683333E2,6.3E1,6.7868853E0,1.0285714E1,5.278137E0,2.7857144E0,1.2583858E2,5E0,6.853608E0,5.0689654E0,3E0,3E0,7.120332E0,2E0,1.6366667E2,4E0,1.0792079E2,1.6733333E2,9.20339E0,1.27E2,2.5714285E0,1.20034485E2,2.0425532E0,3.7272727E0,5.1975684E0,1E0,1.20034485E2,2.9230769E0,5.1875E0,1E0,7E0,7E0,6.5E0,1.32E2,1.8233333E2,6E0,7.7E1,5E0,8.888889E0,5E0,8.888889E0,1.8766667E2,8.055866E0,7.6991153E0,5.2173915E0,1.3614285E2,2E0,3.165E2,1.0037037E1,1.09E2,3E0,3.165E2,-4.0193095E0,-2.7722316E0,-2.800717E0,-1.4175438E0,-6.34711E0,-4.92791E0,-3.7966046E0,-3.0222623E0,-2.1946237E0,3.0452117E-2,1.6797329E0,8.4493056E-2,-2.7571304E0,-1.1765337E0,-4.9711375E0,-2.902202E0,-1.5416319E0,-8.444436E-1,1.1215806E0,-1.7583244E-1,-1.7197312E0,-2.4334803E0,-1.0987974E0,-1.704505E0,-4.4615474E-1,3.8371953E-1,-6.734371E-1,1.3196435E0,8.7417555E-1,4.31819E0,8.091248E-2,-6.3714284E-1,-1.6991599E-1,6.1837757E-1,9.545976E-1,1.7865005E-1,1.5085187E0,3.1295955E0,1.0296214E0,3.9144838E-1,6.12746E-1,2.479222E0,2.3591712E0,3.8334816E0,1.8168706E0,2.5402238E0,9.8524773E-1,1.6173166E0,-1.7998899E0,-4.9350125E-4,1.6589233E-1,1.5944418E0,1.833993E0,-3.3845526E-1,3.3547916E0,9.40291E0,2.4687605E0,3.8141353E0,2.7674484E0,3.6616707E0,3.973452E0,1.2983887E-1,5.4182525E0,1.1426359E1],"split_indices":[3,3,3,7,3,3,0,1,2,1,7,6,0,8,3,8,3,7,1,8,3,1,1,8,1,6,1,7,6,3,0,3,6,3,3,8,1,6,3,8,1,1,1,8,2,6,1,0,1,8,1,8,6,8,3,8,6,1,6,8,0,1,6,0,0,0,0,0,0,0,0,0,0,0,0,0,0,0,0,0,0,0,0,0,0,0,0,0,0,0,0,0,0,0,0,0,0,0,0,0,0,0,0,0,0,0,0,0,0,0,0,0,0,0,0,0,0,0,0,0,0,0,0,0,0,0,0],"split_type":[0,0,0,0,0,0,0,0,0,0,0,0,0,0,0,0,0,0,0,0,0,0,0,0,0,0,0,0,0,0,0,0,0,0,0,0,0,0,0,0,0,0,0,0,0,0,0,0,0,0,0,0,0,0,0,0,0,0,0,0,0,0,0,0,0,0,0,0,0,0,0,0,0,0,0,0,0,0,0,0,0,0,0,0,0,0,0,0,0,0,0,0,0,0,0,0,0,0,0,0,0,0,0,0,0,0,0,0,0,0,0,0,0,0,0,0,0,0,0,0,0,0,0,0,0,0,0],"sum_hessian":[4.79435E5,2.6458E5,2.14855E5,1.00863E5,1.63717E5,1.42575E5,7.228E4,7.7036E4,2.3827E4,8.5005E4,7.8712E4,7.9577E4,6.2998E4,1.9754E4,5.2526E4,5.4815E4,2.2221E4,1.273E4,1.1097E4,5.101E4,3.3995E4,5.5358E4,2.3354E4,5.3695E4,2.5882E4,1.9824E4,4.3174E4,6.017E3,1.3737E4,4.122E4,1.1306E4,2.6979E4,2.7836E4,5.63E3,1.6591E4,7.568E3,5.162E3,8.717E3,2.38E3,3.4938E4,1.6072E4,2.2116E4,1.1879E4,2.6113E4,2.9245E4,1.0649E4,1.2705E4,3.2899E4,2.0796E4,7.813E3,1.8069E4,1.723E4,2.594E3,2.5132E4,1.8042E4,2.46E3,3.557E3,1.1567E4,2.17E3,2.4419E4,1.6801E4,5.199E3,6.107E3,8.148E3,1.8831E4,1.0217E4,1.7619E4,1.642E3,3.988E3,9.558E3,7.033E3,8.13E2,6.755E3,3.666E3,1.496E3,1.689E3,7.028E3,2.66E2,2.114E3,1.1829E4,2.3109E4,3.848E3,1.2224E4,1.6074E4,6.042E3,8.737E3,3.142E3,1.5029E4,1.1084E4,2.8763E4,4.82E2,1.0367E4,2.82E2,9.529E3,3.176E3,1.5656E4,1.7243E4,1.5425E4,5.371E3,7.072E3,7.41E2,1.2491E4,5.578E3,1.5803E4,1.427E3,2.049E3,5.45E2,1.9238E4,5.894E3,6.535E3,1.1507E4,6.77E2,1.783E3,1.336E3,2.221E3,1.0628E4,9.39E2,2.135E3,3.5E1,2.3104E4,1.315E3,6.396E3,1.0405E4,4.765E3,4.34E2,5.958E3,1.49E2],"tree_param":{"num_deleted":"0","num_feature":"11","num_nodes":"127","size_leaf_vector":"1"}},{"base_weights":[4.027631E-4,-1.3877999E1,1.2386075E1,-2.285279E1,-8.060338E0,5.359589E0,2.1641094E1,-3.203028E1,-1.452411E1,-1.211559E1,-1.3294466E0,1.297726E0,8.646549E0,1.3985235E1,2.6156765E1,-4.4486332E1,-2.944801E1,-1.9124857E1,-1.0325901E1,-1.6919003E1,-7.4491806E0,4.776852E0,-8.396025E0,-7.1864617E-1,5.893884E0,5.4484835E0,1.1206196E1,8.448004E0,2.0044336E1,2.1288345E1,3.7895073E1,-5.3973637E1,-3.71235E1,-2.4241486E1,-3.458878E1,-1.6113409E1,-2.4309431E1,-1.0815773E1,6.3080645E0,-5.7816405E0,-2.0458117E1,-4.0761766E0,-1.0338031E1,2.3942232E0,1.8270954E1,-1.7077623E1,-4.8966045E0,-2.8692765E0,2.1035101E0,1.2603921E1,2.704473E0,-6.028646E-1,7.439563E0,1.2917552E1,5.18628E0,6.666186E0,2.6416462E1,1.8326035E1,3.8436947E1,1.8831194E1,2.5796421E1,3.5610817E1,6.1018185E1,-5.8441424E0,-4.7447762E0,-4.2347894E0,-3.347442E0,-3.0191655E0,-1.6958703E0,-4.602231E0,-3.2062669E0,-2.0681412E0,-1.4186953E0,-3.25741E0,-2.259553E0,-8.9390403E-1,-1.4404243E0,1.6627248E-1,1.7318687E0,-1.1495993E0,5.7200234E-2,-1.736872E0,-2.5796914E0,-5.793679E-1,2.326717E-1,-1.2330257E0,-5.21228E-1,8.245949E-1,-1.0705467E-1,1.5418077E0,3.3423748E0,-1.3103955E0,-2.708553E0,-2.141881E-1,-1.1344213E0,-9.102339E-1,-8.784958E-2,4.248685E-1,-4.3169665E-1,1.0971987E0,3.6761754E0,4.0732908E-1,-3.5959908E-1,-1.0160872E0,3.6536458E-1,1.1863327E0,6.267496E-1,1.182699E0,2.270201E0,-2.5798285E0,5.726787E-1,-2.8253927E0,7.631492E-1,4.328524E0,1.7176598E0,1.5486581E0,2.415548E0,3.648812E0,9.239816E0,2.1091473E0,1.5743178E0,8.214034E0,2.5673072E0,3.5146809E0,1.0464617E1,5.6229205E0,9.183505E0],"categories":[],"categories_nodes":[],"categories_segments":[],"categories_sizes":[],"default_left":[0,0,0,0,0,0,0,0,0,0,0,0,0,0,0,0,0,0,0,0,0,0,0,0,0,0,0,0,0,0,0,0,0,0,0,0,0,0,0,0,0,0,0,0,0,0,0,0,0,0,0,0,0,0,0,0,0,0,0,0,0,0,0,0,0,0,0,0,0,0,0,0,0,0,0,0,0,0,0,0,0,0,0,0,0,0,0,0,0,0,0,0,0,0,0,0,0,0,0,0,0,0,0,0,0,0,0,0,0,0,0,0,0,0,0,0,0,0,0,0,0,0,0,0,0,0,0],"id":7,"left_children":[1,3,5,7,9,11,13,15,17,19,21,23,25,27,29,31,33,35,37,39,41,43,45,47,49,51,53,55,57,59,61,63,65,67,69,71,73,75,77,79,81,83,85,87,89,91,93,95,97,99,101,103,105,107,109,111,113,115,117,119,121,123,125,-1,-1,-1,-1,-1,-1,-1,-1,-1,-1,-1,-1,-1,-1,-1,-1,-1,-1,-1,-1,-1,-1,-1,-1,-1,-1,-1,-1,-1,-1,-1,-1,-1,-1,-1,-1,-1,-1,-1,-1,-1,-1,-1,-1,-1,-1,-1,-1,-1,-1,-1,-1,-1,-1,-1,-1,-1,-1,-1,-1,-1,-1,-1,-1],"loss_changes":[8.241203E7,1.1804704E7,1.6474844E7,6.796176E6,3.744267E6,1.922706E6,3.779424E6,1.359364E6,9.00205E5,1.918615E6,2.2255342E6,5.969652E5,6.51521E5,1.360813E6,3.929136E6,5.05272E5,9.37078E5,3.468585E5,1.9870475E5,1.662506E6,4.2306625E5,8.895221E5,7.26255E5,2.7175194E5,4.2032562E5,4.2638425E5,4.554045E5,6.78478E5,6.11434E5,5.37978E5,1.062608E6,8.9681E4,7.65935E4,7.54059E5,5.07724E5,1.2354075E5,1.149905E5,1.593465E5,3.5672566E4,3.6935716E5,5.27496E5,2.2032703E5,2.38776E5,4.7681325E5,1.7897175E5,2.727725E5,3.0264734E5,3.1529606E5,2.6671956E5,2.4907162E5,1.148457E5,3.5650822E5,1.3798525E5,3.67055E5,1.6407112E5,6.5031994E5,2.9727075E5,2.92869E5,1.70565E5,2.19294E5,1.17057E5,5.84094E5,2.62106E5,0E0,0E0,0E0,0E0,0E0,0E0,0E0,0E0,0E0,0E0,0E0,0E0,0E0,0E0,0E0,0E0,0E0,0E0,0E0,0E0,0E0,0E0,0E0,0E0,0E0,0E0,0E0,0E0,0E0,0E0,0E0,0E0,0E0,0E0,0E0,0E0,0E0,0E0,0E0,0E0,0E0,0E0,0E0,0E0,0E0,0E0,0E0,0E0,0E0,0E0,0E0,0E0,0E0,0E0,0E0,0E0,0E0,0E0,0E0,0E0,0E0,0E0,0E0,0E0],"parents":[2147483647,0,0,1,1,2,2,3,3,4,4,5,5,6,6,7,7,8,8,9,9,10,10,11,11,12,12,13,13,14,14,15,15,16,16,17,17,18,18,19,19,20,20,21,21,22,22,23,23,24,24,25,25,26,26,27,27,28,28,29,29,30,30,31,31,32,32,33,33,34,34,35,35,36,36,37,37,38,38,39,39,40,40,41,41,42,42,43,43,44,44,45,45,46,46,47,47,48,48,49,49,50,50,51,51,52,52,53,53,54,54,55,55,56,56,57,57,58,58,59,59,60,60,61,61,62,62],"right_children":[2,4,6,8,10,12,14,16,18,20,22,24,26,28,30,32,34,36,38,40,42,44,46,48,50,52,54,56,58,60,62,64,66,68,70,72,74,76,78,80,82,84,86,88,90,92,94,96,98,100,102,104,106,108,110,112,114,116,118,120,122,124,126,-1,-1,-1,-1,-1,-1,-1,-1,-1,-1,-1,-1,-1,-1,-1,-1,-1,-1,-1,-1,-1,-1,-1,-1,-1,-1,-1,-1,-1,-1,-1,-1,-1,-1,-1,-1,-1,-1,-1,-1,-1,-1,-1,-1,-1,-1,-1,-1,-1,-1,-1,-1,-1,-1,-1,-1,-1,-1,-1,-1,-1,-1,-1,-1],"split_conditions":[6E0,8.063241E1,7.756098E0,3.8461537E0,6.8644066E0,6.6666665E0,7.2E1,2.9918034E1,4.8E0,4.6666665E0,3E0,1.2109091E2,6.938389E0,1.454E2,9.407408E0,2.4E0,3E0,5E0,1.21E2,1E0,3E0,1.57875E2,4.6666665E0,1.4E2,2E0,4.7E1,5E0,8.9577465E0,1.85E2,8.655738E0,2.12E2,1.17045456E2,1.19E2,5.1975684E0,2.4807692E0,4.7391305E0,5.7E1,5E0,1.31E2,1.3233333E2,4E0,1.18080666E2,5.6210527E0,1E0,1.8233333E2,6E0,6E0,3.7E1,5E0,1.706E2,6E0,9.4318184E1,2E0,1.6776923E2,6.2E1,1.0275E2,1.26475E2,1.3580786E2,3.165E2,4E0,8.6E1,3.165E2,1.2583333E1,-5.8441424E0,-4.7447762E0,-4.2347894E0,-3.347442E0,-3.0191655E0,-1.6958703E0,-4.602231E0,-3.2062669E0,-2.0681412E0,-1.4186953E0,-3.25741E0,-2.259553E0,-8.9390403E-1,-1.4404243E0,1.6627248E-1,1.7318687E0,-1.1495993E0,5.7200234E-2,-1.736872E0,-2.5796914E0,-5.793679E-1,2.326717E-1,-1.2330257E0,-5.21228E-1,8.245949E-1,-1.0705467E-1,1.5418077E0,3.3423748E0,-1.3103955E0,-2.708553E0,-2.141881E-1,-1.1344213E0,-9.102339E-1,-8.784958E-2,4.248685E-1,-4.3169665E-1,1.0971987E0,3.6761754E0,4.0732908E-1,-3.5959908E-1,-1.0160872E0,3.6536458E-1,1.1863327E0,6.267496E-1,1.182699E0,2.270201E0,-2.5798285E0,5.726787E-1,-2.8253927E0,7.631492E-1,4.328524E0,1.7176598E0,1.5486581E0,2.415548E0,3.648812E0,9.239816E0,2.1091473E0,1.5743178E0,8.214034E0,2.5673072E0,3.5146809E0,1.0464617E1,5.6229205E0,9.183505E0],"split_indices":[3,7,3,3,8,3,0,7,3,3,1,7,8,6,3,3,1,1,0,1,1,6,3,6,1,0,1,8,6,3,0,6,6,8,3,8,0,1,0,6,1,7,3,1,6,1,1,0,1,6,1,7,1,6,2,6,6,7,6,1,6,6,3,0,0,0,0,0,0,0,0,0,0,0,0,0,0,0,0,0,0,0,0,0,0,0,0,0,0,0,0,0,0,0,0,0,0,0,0,0,0,0,0,0,0,0,0,0,0,0,0,0,0,0,0,0,0,0,0,0,0,0,0,0,0,0,0],"split_type":[0,0,0,0,0,0,0,0,0,0,0,0,0,0,0,0,0,0,0,0,0,0,0,0,0,0,0,0,0,0,0,0,0,0,0,0,0,0,0,0,0,0,0,0,0,0,0,0,0,0,0,0,0,0,0,0,0,0,0,0,0,0,0,0,0,0,0,0,0,0,0,0,0,0,0,0,0,0,0,0,0,0,0,0,0,0,0,0,0,0,0,0,0,0,0,0,0,0,0,0,0,0,0,0,0,0,0,0,0,0,0,0,0,0,0,0,0,0,0,0,0,0,0,0,0,0,0],"sum_hessian":[4.79435E5,2.26093E5,2.53342E5,8.8918E4,1.37175E5,1.4401E5,1.09332E5,4.2302E4,4.6616E4,8.5601E4,5.1574E4,6.4413E4,7.9597E4,4.0564E4,6.8768E4,7.261E3,3.5041E4,2.224E4,2.4376E4,4.218E4,4.3421E4,2.7667E4,2.3907E4,4.4772E4,1.9641E4,3.5387E4,4.421E4,2.1196E4,1.9368E4,4.861E4,2.0158E4,3.17E3,4.091E3,1.7412E4,1.7629E4,1.4071E4,8.169E3,2.3679E4,6.97E2,1.0172E4,3.2008E4,2.0033E4,2.3388E4,2.3516E4,4.151E3,6.867E3,1.704E4,2.5409E4,1.9363E4,6.327E3,1.3314E4,8.761E3,2.6626E4,3.4423E4,9.787E3,1.9285E4,1.911E3,1.7715E4,1.653E3,3.1465E4,1.7145E4,1.8348E4,1.81E3,1.877E3,1.293E3,1.678E3,2.413E3,9.581E3,7.831E3,3.187E3,1.4442E4,4.171E3,9.9E3,1.4E3,6.769E3,1.555E4,8.129E3,4.91E2,2.06E2,5.355E3,4.817E3,2.0278E4,1.173E4,1.5796E4,4.237E3,1.6841E4,6.547E3,8.745E3,1.4771E4,3.495E3,6.56E2,4.917E3,1.95E3,1.194E4,5.1E3,6.15E3,1.9259E4,1.4514E4,4.849E3,5.928E3,3.99E2,1.0938E4,2.376E3,2.699E3,6.062E3,5.575E3,2.1051E4,3.0973E4,3.45E3,1.67E2,9.62E3,5.18E2,1.8767E4,6.75E2,1.236E3,1.1915E4,5.8E3,1.597E3,5.6E1,1.8164E4,1.3301E4,3.6E1,1.7109E4,1.8227E4,1.21E2,1.569E3,2.41E2],"tree_param":{"num_deleted":"0","num_feature":"11","num_nodes":"127","size_leaf_vector":"1"}},{"base_weights":[4.1025892E-4,-1.2914814E1,1.0800285E1,-1.9186026E1,-6.0867844E0,4.453053E0,1.9356644E1,-2.6875664E1,-1.2186934E1,-1.341109E1,-2.5273633E0,9.837377E-1,7.674158E0,1.7903236E1,3.8912025E1,-2.2533167E1,-3.319143E1,-1.5747456E1,-8.597203E0,-1.9953451E1,-1.0288316E1,7.874356E0,-5.4735126E0,-9.547249E-1,5.1671705E0,5.637115E0,1.1294058E1,9.095446E0,2.0404634E1,3.3979362E1,6.140922E1,-2.80173E1,-1.7739075E1,-4.680302E1,-2.9879152E1,-9.584382E0,-1.7945343E1,-5.66631E0,-1.0725178E1,-9.728439E0,-2.5101522E1,-7.074043E0,-1.316957E1,4.1542225E0,1.6472063E1,-3.1162982E0,-1.278172E1,-4.020643E0,9.679788E-1,1.3409054E1,1.8995119E0,8.096869E-1,7.178674E0,1.3665784E1,6.420226E0,2.2956781E-1,1.3530983E1,1.7083046E1,2.8286753E1,9.2887535E1,3.310259E1,5.8016697E1,1.001117E2,-4.113323E0,-2.4705567E0,-2.6819417E0,-1.4076662E0,-5.681022E0,-4.382823E0,-3.4225376E0,-2.7151227E0,-1.1616007E0,-1.6345178E-1,-1.6647923E0,-2.3288476E0,-9.531047E-1,-3.1041634E-1,-1.8180395E0,-9.3193674E-1,-2.1222467E0,-5.050242E-1,-3.387756E0,-2.1571918E0,-1.1022233E0,-3.6626408E-1,-1.4762105E0,-6.9489807E-1,-1.460469E-1,7.217572E-1,1.4809245E0,3.4264615E0,-7.1418417E-1,9.791402E-2,-2.4599843E0,-1.0188435E0,-1.4671266E0,-2.1257327E-1,3.150923E-1,-1.1243422E-1,1.097191E0,2.6224048E0,3.7266263E-1,-3.617745E-1,-1.2573179E0,2.935979E-1,8.033835E-1,1.3470893E-1,1.2630634E0,2.500429E0,8.108019E-1,3.3842582E-1,-1.7222925E0,2.9992658E-1,1.5125903E0,-8.5889846E-1,1.6002403E0,2.3337934E0,2.6685429E0,4.61568E0,7.1296306E0,9.789488E0,3.1763074E0,6.08859E0,5.493997E0,9.9327755E0,4.568446E0,1.139754E1],"categories":[],"categories_nodes":[],"categories_segments":[],"categories_sizes":[],"default_left":[0,0,0,0,0,0,0,0,0,0,0,0,0,0,0,0,0,0,0,0,0,0,0,0,0,0,0,0,0,0,0,0,0,0,0,0,0,0,0,0,0,0,0,0,0,0,0,0,0,0,0,0,0,0,0,0,0,0,0,0,0,0,0,0,0,0,0,0,0,0,0,0,0,0,0,0,0,0,0,0,0,0,0,0,0,0,0,0,0,0,0,0,0,0,0,0,0,0,0,0,0,0,0,0,0,0,0,0,0,0,0,0,0,0,0,0,0,0,0,0,0,0,0,0,0,0,0],"id":8,"left_children":[1,3,5,7,9,11,13,15,17,19,21,23,25,27,29,31,33,35,37,39,41,43,45,47,49,51,53,55,57,59,61,63,65,67,69,71,73,75,77,79,81,83,85,87,89,91,93,95,97,99,101,103,105,107,109,111,113,115,117,119,121,123,125,-1,-1,-1,-1,-1,-1,-1,-1,-1,-1,-1,-1,-1,-1,-1,-1,-1,-1,-1,-1,-1,-1,-1,-1,-1,-1,-1,-1,-1,-1,-1,-1,-1,-1,-1,-1,-1,-1,-1,-1,-1,-1,-1,-1,-1,-1,-1,-1,-1,-1,-1,-1,-1,-1,-1,-1,-1,-1,-1,-1,-1,-1,-1,-1],"loss_changes":[6.687322E7,9.349036E6,1.41801E7,6.124872E6,2.725067E6,1.6751625E6,3.159796E6,1.48652E6,7.61388E5,6.982055E5,2.155767E6,5.8527856E5,5.73124E5,2.280282E6,8.51503E5,8.4443E5,9.94626E5,4.049945E5,1.8499325E5,5.81102E5,2.14228E5,4.965567E5,9.4432775E5,2.90738E5,6.1544375E5,3.7017012E5,3.2345975E5,9.0038075E5,2.11006E6,3.228825E5,1.756475E5,6.5001E5,5.69962E5,1.26173E5,2.09767E5,1.2700975E5,1.524485E5,1.2357734E5,1.79982E5,1.9884675E5,2.26788E5,1.4732244E5,1.2077675E5,1.8643877E5,1.3822038E5,6.833831E5,4.0947925E5,3.8360797E5,1.3845117E5,2.023455E5,1.6499355E5,3.426742E5,1.8801188E5,2.206575E5,4.6929688E4,3.6916162E5,5.3853125E5,3.82986E5,6.82628E5,2.967E3,2.295505E5,1.56345E5,7.7795E4,0E0,0E0,0E0,0E0,0E0,0E0,0E0,0E0,0E0,0E0,0E0,0E0,0E0,0E0,0E0,0E0,0E0,0E0,0E0,0E0,0E0,0E0,0E0,0E0,0E0,0E0,0E0,0E0,0E0,0E0,0E0,0E0,0E0,0E0,0E0,0E0,0E0,0E0,0E0,0E0,0E0,0E0,0E0,0E0,0E0,0E0,0E0,0E0,0E0,0E0,0E0,0E0,0E0,0E0,0E0,0E0,0E0,0E0,0E0,0E0,0E0,0E0,0E0,0E0],"parents":[2147483647,0,0,1,1,2,2,3,3,4,4,5,5,6,6,7,7,8,8,9,9,10,10,11,11,12,12,13,13,14,14,15,15,16,16,17,17,18,18,19,19,20,20,21,21,22,22,23,23,24,24,25,25,26,26,27,27,28,28,29,29,30,30,31,31,32,32,33,33,34,34,35,35,36,36,37,37,38,38,39,39,40,40,41,41,42,42,43,43,44,44,45,45,46,46,47,47,48,48,49,49,50,50,51,51,52,52,53,53,54,54,55,55,56,56,57,57,58,58,59,59,60,60,61,61,62,62],"right_children":[2,4,6,8,10,12,14,16,18,20,22,24,26,28,30,32,34,36,38,40,42,44,46,48,50,52,54,56,58,60,62,64,66,68,70,72,74,76,78,80,82,84,86,88,90,92,94,96,98,100,102,104,106,108,110,112,114,116,118,120,122,124,126,-1,-1,-1,-1,-1,-1,-1,-1,-1,-1,-1,-1,-1,-1,-1,-1,-1,-1,-1,-1,-1,-1,-1,-1,-1,-1,-1,-1,-1,-1,-1,-1,-1,-1,-1,-1,-1,-1,-1,-1,-1,-1,-1,-1,-1,-1,-1,-1,-1,-1,-1,-1,-1,-1,-1,-1,-1,-1,-1,-1,-1,-1,-1,-1],"split_conditions":[5.85E0,8.9583336E1,7.722772E0,4E0,1.2845833E2,6.6666665E0,1.81E2,4E0,4.8990827E0,4E0,1E0,7.3661537E0,1.4683333E2,4.3E1,1.1225806E1,1.17045456E2,2.4807692E0,2E0,3E0,1.6E1,3E0,1.2717718E2,5E0,9.5454544E1,2E0,4.7E1,4E0,1.1285008E2,9.20339E0,3E0,1.4181818E1,4.767442E1,4.6086955E0,1.7142857E0,3.1698112E0,1.4091667E2,7E0,5.4E0,5.9E1,5.1975684E0,3E0,5.804878E0,5.4857144E0,6.351724E0,1.7283333E2,6.853608E0,4.285714E0,2.5E1,3E0,8.888889E0,6E0,5.419355E0,6E0,1.7433333E2,6E0,5.25E0,2E0,8.79661E0,1.0037037E1,3.1E1,1.35E2,1.3E2,1.7283333E2,-4.113323E0,-2.4705567E0,-2.6819417E0,-1.4076662E0,-5.681022E0,-4.382823E0,-3.4225376E0,-2.7151227E0,-1.1616007E0,-1.6345178E-1,-1.6647923E0,-2.3288476E0,-9.531047E-1,-3.1041634E-1,-1.8180395E0,-9.3193674E-1,-2.1222467E0,-5.050242E-1,-3.387756E0,-2.1571918E0,-1.1022233E0,-3.6626408E-1,-1.4762105E0,-6.9489807E-1,-1.460469E-1,7.217572E-1,1.4809245E0,3.4264615E0,-7.1418417E-1,9.791402E-2,-2.4599843E0,-1.0188435E0,-1.4671266E0,-2.1257327E-1,3.150923E-1,-1.1243422E-1,1.097191E0,2.6224048E0,3.7266263E-1,-3.617745E-1,-1.2573179E0,2.935979E-1,8.033835E-1,1.3470893E-1,1.2630634E0,2.500429E0,8.108019E-1,3.3842582E-1,-1.7222925E0,2.9992658E-1,1.5125903E0,-8.5889846E-1,1.6002403E0,2.3337934E0,2.6685429E0,4.61568E0,7.1296306E0,9.789488E0,3.1763074E0,6.08859E0,5.493997E0,9.9327755E0,4.568446E0,1.139754E1],"split_indices":[3,7,3,3,6,3,0,1,3,3,1,8,6,0,3,6,3,1,1,2,1,7,1,7,1,0,1,7,3,9,3,7,8,3,3,6,1,8,0,8,3,8,3,8,6,8,3,2,1,8,1,8,1,6,1,8,1,8,8,10,2,2,6,0,0,0,0,0,0,0,0,0,0,0,0,0,0,0,0,0,0,0,0,0,0,0,0,0,0,0,0,0,0,0,0,0,0,0,0,0,0,0,0,0,0,0,0,0,0,0,0,0,0,0,0,0,0,0,0,0,0,0,0,0,0,0,0],"split_type":[0,0,0,0,0,0,0,0,0,0,0,0,0,0,0,0,0,0,0,0,0,0,0,0,0,0,0,0,0,0,0,0,0,0,0,0,0,0,0,0,0,0,0,0,0,0,0,0,0,0,0,0,0,0,0,0,0,0,0,0,0,0,0,0,0,0,0,0,0,0,0,0,0,0,0,0,0,0,0,0,0,0,0,0,0,0,0,0,0,0,0,0,0,0,0,0,0,0,0,0,0,0,0,0,0,0,0,0,0,0,0,0,0,0,0,0,0,0,0,0,0,0,0,0,0,0,0],"sum_hessian":[4.79435E5,2.18335E5,2.611E5,1.13807E5,1.04528E5,1.49902E5,1.11198E5,5.4227E4,5.958E4,3.4184E4,7.0344E4,7.2171E4,7.7731E4,1.03507E5,7.691E3,3.2136E4,2.2091E4,2.991E4,2.967E4,1.1043E4,2.3141E4,1.5526E4,5.4818E4,4.9319E4,2.2852E4,4.9742E4,2.7989E4,2.2895E4,8.0612E4,6.31E3,1.381E3,1.4987E4,1.7149E4,4.321E3,1.777E4,7.864E3,2.2046E4,1.2482E4,1.7188E4,3.699E3,7.344E3,1.094E4,1.2201E4,1.0838E4,4.688E3,4.145E4,1.3368E4,1.9008E4,3.0311E4,6.487E3,1.6365E4,1.204E4,3.7702E4,1.8826E4,9.163E3,7.635E3,1.526E4,5.6715E4,2.3897E4,9.1E1,6.219E3,1.272E3,1.09E2,3.019E3,1.1968E4,4.927E3,1.2222E4,9.86E2,3.335E3,6.848E3,1.0922E4,6.263E3,1.601E3,1.7742E4,4.304E3,4.975E3,7.507E3,2.725E3,1.4463E4,1.069E3,2.63E3,2.104E3,5.24E3,5.07E3,5.87E3,9.713E3,2.488E3,3.826E3,7.012E3,4.289E3,3.99E2,2.0903E4,2.0547E4,2.404E3,1.0964E4,2.87E3,1.6138E4,1.4834E4,1.5477E4,5.452E3,1.035E3,1.2294E4,4.071E3,1.65E3,1.039E4,3.288E4,4.822E3,1.7253E4,1.573E3,5.888E3,3.275E3,1.045E3,6.59E3,1.4234E4,1.026E3,4.8363E4,8.352E3,2.1934E4,1.963E3,2E1,7.1E1,5.935E3,2.84E2,1.186E3,8.6E1,2.3E1,8.6E1],"tree_param":{"num_deleted":"0","num_feature":"11","num_nodes":"127","size_leaf_vector":"1"}},{"base_weights":[4.2857183E-4,-1.2399023E1,9.140026E0,-1.7858282E1,-6.1213903E0,3.2164342E0,1.7003885E1,-2.5732784E1,-1.269497E1,-7.427957E-2,-1.0271659E1,2.6988563E-1,6.23233E0,1.5939484E1,3.8487217E1,-1.4732651E1,-2.8400242E1,-1.6025354E1,-9.133716E0,-7.31132E0,4.605511E0,-1.9170132E1,-7.864533E0,-1.3456031E0,4.3640227E0,2.9992123E0,8.171487E0,8.655672E0,1.832081E1,3.4367012E1,6.092574E1,-1.9208595E1,-3.3671932E0,-3.631732E1,-2.5472544E1,-9.7162695E0,-1.8295063E1,-7.513472E0,-1.2710387E1,-2.8332325E1,-6.200284E0,1.185154E0,1.1418075E1,-2.7396599E1,-1.5087972E1,-5.5742755E0,-1.2237395E1,-9.2406176E-2,-5.1113405E0,1.3472226E1,2.7501104E0,-3.989895E-1,5.8549795E0,1.0957584E1,5.551692E0,-9.218575E-1,1.2018822E1,1.4238729E1,2.4045023E1,9.2917496E1,3.3250126E1,5.666714E1,9.196362E1,-3.3239992E0,-1.7226247E0,-1.4119248E0,3.7508946E-2,-4.4632974E0,-3.1453223E0,-2.3021324E0,-3.169885E0,-1.1366727E0,-2.8941098E-1,-1.6415236E0,-2.2232096E0,-8.291497E-1,1.8199019E-1,-3.4221768E0,-1.203004E0,-4.1798263E0,-1.9488602E0,-1.1890059E0,-2.9008466E-1,4.4834682E-1,-2.7302843E-1,9.469258E-1,2.3502784E0,-3.5793722E0,-2.3965375E0,-1.0225371E0,-2.2458317E0,-8.252134E-1,-3.7902895E-2,-1.5024406E0,-8.3800375E-1,-1.1949863E-1,6.466047E-1,-1.5470117E0,-4.2227408E-1,1.2157899E0,4.368078E0,2.312113E-1,2.1230745E0,-9.5428675E-1,1.1390581E-1,8.184561E-1,3.6225197E-1,9.8272896E-1,2.133856E0,6.6844296E-1,1.5934245E-1,-2.3327358E0,1.04503475E-1,9.9108106E-1,2.443374E0,1.3558782E0,2.1740546E0,2.2679472E0,3.842659E0,9.776694E0,7.154106E0,3.1566284E0,5.538342E0,5.27343E0,9.063033E0,6.4236817E0,1.1408725E1],"categories":[],"categories_nodes":[],"categories_segments":[],"categories_sizes":[],"default_left":[0,0,0,0,0,0,0,0,0,0,0,0,0,0,0,0,0,0,0,0,0,0,0,0,0,0,0,0,0,0,0,0,0,0,0,0,0,0,0,0,0,0,0,0,0,0,0,0,0,0,0,0,0,0,0,0,0,0,0,0,0,0,0,0,0,0,0,0,0,0,0,0,0,0,0,0,0,0,0,0,0,0,0,0,0,0,0,0,0,0,0,0,0,0,0,0,0,0,0,0,0,0,0,0,0,0,0,0,0,0,0,0,0,0,0,0,0,0,0,0,0,0,0,0,0,0,0],"id":9,"left_children":[1,3,5,7,9,11,13,15,17,19,21,23,25,27,29,31,33,35,37,39,41,43,45,47,49,51,53,55,57,59,61,63,65,67,69,71,73,75,77,79,81,83,85,87,89,91,93,95,97,99,101,103,105,107,109,111,113,115,117,119,121,123,125,-1,-1,-1,-1,-1,-1,-1,-1,-1,-1,-1,-1,-1,-1,-1,-1,-1,-1,-1,-1,-1,-1,-1,-1,-1,-1,-1,-1,-1,-1,-1,-1,-1,-1,-1,-1,-1,-1,-1,-1,-1,-1,-1,-1,-1,-1,-1,-1,-1,-1,-1,-1,-1,-1,-1,-1,-1,-1,-1,-1,-1,-1,-1,-1],"loss_changes":[5.4332676E7,6.971956E6,1.2856612E7,4.423768E6,2.374891E6,1.3989175E6,2.710916E6,1.263974E6,7.79326E5,1.3044195E6,1.2018175E6,5.2666144E5,4.8771325E5,1.959548E6,5.153565E5,4.2786362E5,8.02916E5,4.86123E5,1.8396775E5,3.5307012E5,5.450062E5,4.00788E5,4.422835E5,2.6945697E5,3.3115038E5,2.830623E5,3.54875E5,8.96724E5,1.989216E6,3.0629E5,1.0938675E5,1.672915E5,9.568942E4,3.77191E5,3.85722E5,1.01157875E5,1.844665E5,1.5876825E5,1.444915E5,8.957394E4,2.69678E5,2.0112736E5,1.8389819E5,1.13268E5,2.8601675E5,4.0329562E5,1.630775E5,3.098077E5,1.311676E5,1.34105E5,1.5487902E5,1.8733961E5,8.239625E4,2.762915E5,1.1236831E5,3.1890916E5,5.3898075E5,2.53237E5,6.95164E5,2.128E3,1.713285E5,9.740325E4,5.5853375E4,0E0,0E0,0E0,0E0,0E0,0E0,0E0,0E0,0E0,0E0,0E0,0E0,0E0,0E0,0E0,0E0,0E0,0E0,0E0,0E0,0E0,0E0,0E0,0E0,0E0,0E0,0E0,0E0,0E0,0E0,0E0,0E0,0E0,0E0,0E0,0E0,0E0,0E0,0E0,0E0,0E0,0E0,0E0,0E0,0E0,0E0,0E0,0E0,0E0,0E0,0E0,0E0,0E0,0E0,0E0,0E0,0E0,0E0,0E0,0E0,0E0,0E0,0E0,0E0],"parents":[2147483647,0,0,1,1,2,2,3,3,4,4,5,5,6,6,7,7,8,8,9,9,10,10,11,11,12,12,13,13,14,14,15,15,16,16,17,17,18,18,19,19,20,20,21,21,22,22,23,23,24,24,25,25,26,26,27,27,28,28,29,29,30,30,31,31,32,32,33,33,34,34,35,35,36,36,37,37,38,38,39,39,40,40,41,41,42,42,43,43,44,44,45,45,46,46,47,47,48,48,49,49,50,50,51,51,52,52,53,53,54,54,55,55,56,56,57,57,58,58,59,59,60,60,61,61,62,62],"right_children":[2,4,6,8,10,12,14,16,18,20,22,24,26,28,30,32,34,36,38,40,42,44,46,48,50,52,54,56,58,60,62,64,66,68,70,72,74,76,78,80,82,84,86,88,90,92,94,96,98,100,102,104,106,108,110,112,114,116,118,120,122,124,126,-1,-1,-1,-1,-1,-1,-1,-1,-1,-1,-1,-1,-1,-1,-1,-1,-1,-1,-1,-1,-1,-1,-1,-1,-1,-1,-1,-1,-1,-1,-1,-1,-1,-1,-1,-1,-1,-1,-1,-1,-1,-1,-1,-1,-1,-1,-1,-1,-1,-1,-1,-1,-1,-1,-1,-1,-1,-1,-1,-1,-1,-1,-1,-1],"split_conditions":[5.6666665E0,8.9583336E1,7.6153846E0,3.6E0,2E0,6.571429E0,1.88E2,1E0,4.695652E0,6.3333335E0,4E0,1.2109091E2,1.3827272E2,4.8E1,1.1590909E1,1.3233333E2,2.4E0,2E0,5E0,9.5190475E1,1.4788889E2,1.20034485E2,5E0,5E0,1E0,7.7E1,3E0,1.0701107E2,8.787879E0,3E0,1.4181818E1,3.3333332E1,4.9166665E0,4E1,6E0,1.4091667E2,6E0,7.5855856E0,4.9E1,3.1698112E0,5.1975684E0,1E0,1.7066667E2,2.9230769E0,4E0,1.426E2,5.117647E0,7.7027025E0,7.4E1,1.8233333E2,1.7433333E2,5.1875E0,4E0,8.757576E0,6E0,1.0864706E2,1.664E2,9.230769E0,1.85E2,3E0,1.34E2,1.27E2,8.195122E0,-3.3239992E0,-1.7226247E0,-1.4119248E0,3.7508946E-2,-4.4632974E0,-3.1453223E0,-2.3021324E0,-3.169885E0,-1.1366727E0,-2.8941098E-1,-1.6415236E0,-2.2232096E0,-8.291497E-1,1.8199019E-1,-3.4221768E0,-1.203004E0,-4.1798263E0,-1.9488602E0,-1.1890059E0,-2.9008466E-1,4.4834682E-1,-2.7302843E-1,9.469258E-1,2.3502784E0,-3.5793722E0,-2.3965375E0,-1.0225371E0,-2.2458317E0,-8.252134E-1,-3.7902895E-2,-1.5024406E0,-8.3800375E-1,-1.1949863E-1,6.466047E-1,-1.5470117E0,-4.2227408E-1,1.2157899E0,4.368078E0,2.312113E-1,2.1230745E0,-9.5428675E-1,1.1390581E-1,8.184561E-1,3.6225197E-1,9.8272896E-1,2.133856E0,6.6844296E-1,1.5934245E-1,-2.3327358E0,1.04503475E-1,9.9108106E-1,2.443374E0,1.3558782E0,2.1740546E0,2.2679472E0,3.842659E0,9.776694E0,7.154106E0,3.1566284E0,5.538342E0,5.27343E0,9.063033E0,6.4236817E0,1.1408725E1],"split_indices":[3,7,3,3,1,3,0,1,3,8,3,7,6,0,3,6,3,1,1,6,6,6,1,1,1,0,1,7,3,9,3,7,8,7,1,6,1,8,0,3,8,1,6,3,1,6,3,8,2,6,6,8,1,8,1,6,6,8,6,1,2,2,8,0,0,0,0,0,0,0,0,0,0,0,0,0,0,0,0,0,0,0,0,0,0,0,0,0,0,0,0,0,0,0,0,0,0,0,0,0,0,0,0,0,0,0,0,0,0,0,0,0,0,0,0,0,0,0,0,0,0,0,0,0,0,0,0],"split_type":[0,0,0,0,0,0,0,0,0,0,0,0,0,0,0,0,0,0,0,0,0,0,0,0,0,0,0,0,0,0,0,0,0,0,0,0,0,0,0,0,0,0,0,0,0,0,0,0,0,0,0,0,0,0,0,0,0,0,0,0,0,0,0,0,0,0,0,0,0,0,0,0,0,0,0,0,0,0,0,0,0,0,0,0,0,0,0,0,0,0,0,0,0,0,0,0,0,0,0,0,0,0,0,0,0,0,0,0,0,0,0,0,0,0,0,0,0,0,0,0,0,0,0,0,0,0,0],"sum_hessian":[4.79435E5,2.03437E5,2.75998E5,1.0881E5,9.4627E4,1.5742E5,1.18578E5,4.309E4,6.572E4,3.8513E4,5.6114E4,7.9626E4,7.7794E4,1.12982E5,5.596E3,8.411E3,3.4679E4,3.3959E4,3.1761E4,1.5124E4,2.3389E4,1.1946E4,4.4168E4,5.7097E4,2.2529E4,2.9167E4,4.8627E4,2.7838E4,8.5144E4,4.73E3,8.66E2,6.034E3,2.377E3,9.359E3,2.532E4,8.986E3,2.4973E4,2.1861E4,9.9E3,7.58E2,1.4366E4,1.5572E4,7.817E3,3.96E3,7.986E3,2.8988E4,1.518E4,4.2841E4,1.4256E4,3.39E3,1.9139E4,1.3319E4,1.5848E4,2.3564E4,2.5063E4,7.235E3,2.0603E4,4.9703E4,3.5441E4,8.7E1,4.643E3,7.64E2,1.02E2,7.45E2,5.289E3,6.13E2,1.764E3,3.451E3,5.908E3,1.8171E4,7.149E3,7.235E3,1.751E3,1.6906E4,8.067E3,2.0179E4,1.682E3,3.02E2,9.598E3,2.99E2,4.59E2,5.272E3,9.094E3,8.452E3,7.12E3,6.733E3,1.084E3,1.146E3,2.814E3,4.813E3,3.173E3,1.9128E4,9.86E3,8.811E3,6.369E3,3.6676E4,6.165E3,1.125E3,1.3131E4,3.25E3,1.4E2,1.8697E4,4.42E2,1.917E3,1.1402E4,7.754E3,8.094E3,2.1252E4,2.312E3,1.9486E4,5.577E3,5.83E2,6.652E3,1.7614E4,2.989E3,4.5575E4,4.128E3,3.237E4,3.071E3,6.8E1,1.9E1,4.317E3,3.26E2,6.87E2,7.7E1,4.7E1,5.5E1],"tree_param":{"num_deleted":"0","num_feature":"11","num_nodes":"127","size_leaf_vector":"1"}},{"base_weights":[4.531666E-4,-8.915682E0,1.0306241E1,-1.5967771E1,-4.361427E0,6.4121346E0,1.8393099E1,-5.1409016E0,-2.0280315E1,-7.03763E0,-4.6614435E-1,3.7938762E0,9.685401E0,1.2604403E1,2.4140112E1,-1.8994606E1,-2.1913688E-1,-3.0588446E1,-1.7270813E1,-1.0560706E1,-4.4014273E0,5.127996E0,-3.0450892E0,3.142795E0,1.1280839E1,6.2893424E0,1.1451149E1,7.456072E0,1.7573084E1,2.0906801E1,3.811168E1,-2.6488848E1,-1.3624814E1,-4.560528E0,8.085541E0,-3.7957005E1,-2.7631428E1,-1.4460945E1,-2.281674E1,-8.885888E0,-1.4432962E1,-1.0778574E1,-3.5994964E0,1.3735563E0,1.0556347E1,-6.6580057E0,-8.534961E-1,2.6318376E0,1.2434947E1,1.9332256E1,8.240742E0,4.4604387E0,1.8545753E1,1.4806381E1,9.631778E0,8.257261E0,-3.4842133E1,1.597534E1,3.457844E1,2.3410198E1,1.698033E1,3.4308113E1,5.4820786E1,-4.2563295E0,-2.3175046E0,-1.9283278E0,-9.4182223E-1,-6.2206316E-1,1.177276E0,4.563418E-1,1.4548992E0,-4.6927295E0,-3.3542843E0,-2.3173547E0,-3.2382123E0,-1.7135638E0,-8.6429274E-1,-2.0318742E0,-2.6136928E0,-1.01086E0,-3.7986457E-1,-2.3518605E0,-1.3587492E0,-2.3732064E0,-7.16047E-1,-2.4775091E-1,-8.535725E-1,-4.846158E-1,3.18343E-1,8.661917E-1,2.296858E0,-4.2436257E-1,-1.107498E0,-5.279384E-3,-7.6478165E-1,8.0891006E-2,4.368937E-1,3.6709198E-1,1.5217435E0,-2.8319714E0,2.0035512E0,1.0815619E0,2.9478845E-1,-2.1096782E-1,7.1517766E-1,1.8246422E0,1.1476577E1,1.3981243E0,2.5989807E0,3.2782897E-1,1.0236E0,6.4808625E-1,2.2889488E0,-3.58026E-1,-3.843306E0,1.6979284E0,-6.1325192E-2,3.2237198E0,8.156883E0,2.2201648E0,3.094303E0,5.527545E-1,1.8181E0,3.1419349E0,4.5035663E0,5.0913672E0,9.971229E0],"categories":[],"categories_nodes":[],"categories_segments":[],"categories_sizes":[],"default_left":[0,0,0,0,0,0,0,0,0,0,0,0,0,0,0,0,0,0,0,0,0,0,0,0,0,0,0,0,0,0,0,0,0,0,0,0,0,0,0,0,0,0,0,0,0,0,0,0,0,0,0,0,0,0,0,0,0,0,0,0,0,0,0,0,0,0,0,0,0,0,0,0,0,0,0,0,0,0,0,0,0,0,0,0,0,0,0,0,0,0,0,0,0,0,0,0,0,0,0,0,0,0,0,0,0,0,0,0,0,0,0,0,0,0,0,0,0,0,0,0,0,0,0,0,0,0,0],"id":10,"left_children":[1,3,5,7,9,11,13,15,17,19,21,23,25,27,29,31,33,35,37,39,41,43,45,47,49,51,53,55,57,59,61,63,65,67,69,71,73,75,77,79,81,83,85,87,89,91,93,95,97,99,101,103,105,107,109,111,113,115,117,119,121,123,125,-1,-1,-1,-1,-1,-1,-1,-1,-1,-1,-1,-1,-1,-1,-1,-1,-1,-1,-1,-1,-1,-1,-1,-1,-1,-1,-1,-1,-1,-1,-1,-1,-1,-1,-1,-1,-1,-1,-1,-1,-1,-1,-1,-1,-1,-1,-1,-1,-1,-1,-1,-1,-1,-1,-1,-1,-1,-1,-1,-1,-1,-1,-1,-1],"loss_changes":[4.405441E7,8.255578E6,7.00312E6,4.70937E6,1.6281678E6,1.2864275E6,2.404318E6,1.9591464E6,2.237176E6,8.59794E5,9.176725E5,4.0650788E5,3.99954E5,9.210705E5,1.63768E6,3.027455E5,7.644506E5,3.54089E5,8.69749E5,2.568465E5,2.707848E5,4.0904088E5,3.4472212E5,3.6426856E5,1.6315181E5,5.1149056E5,2.67768E5,5.997144E5,4.97342E5,2.8914E5,4.31241E5,1.664335E5,1.04312875E5,3.7762188E5,1.6564053E5,1.831425E5,2.45655E5,5.765735E5,1.55177E5,1.7203175E5,9.156825E4,2.770488E5,2.6052119E5,1.335898E5,1.9275781E5,1.75252E5,1.4742977E5,2.30307E5,9.746294E4,6.182675E4,6.599797E4,3.5118762E5,8.32455E4,1.4201375E5,1.09222E5,4.5108438E5,3.6795625E4,2.79015E5,1.7042562E5,1.63045E5,1.5765125E5,1.707E5,2.1627325E5,0E0,0E0,0E0,0E0,0E0,0E0,0E0,0E0,0E0,0E0,0E0,0E0,0E0,0E0,0E0,0E0,0E0,0E0,0E0,0E0,0E0,0E0,0E0,0E0,0E0,0E0,0E0,0E0,0E0,0E0,0E0,0E0,0E0,0E0,0E0,0E0,0E0,0E0,0E0,0E0,0E0,0E0,0E0,0E0,0E0,0E0,0E0,0E0,0E0,0E0,0E0,0E0,0E0,0E0,0E0,0E0,0E0,0E0,0E0,0E0,0E0,0E0,0E0,0E0],"parents":[2147483647,0,0,1,1,2,2,3,3,4,4,5,5,6,6,7,7,8,8,9,9,10,10,11,11,12,12,13,13,14,14,15,15,16,16,17,17,18,18,19,19,20,20,21,21,22,22,23,23,24,24,25,25,26,26,27,27,28,28,29,29,30,30,31,31,32,32,33,33,34,34,35,35,36,36,37,37,38,38,39,39,40,40,41,41,42,42,43,43,44,44,45,45,46,46,47,47,48,48,49,49,50,50,51,51,52,52,53,53,54,54,55,55,56,56,57,57,58,58,59,59,60,60,61,61,62,62],"right_children":[2,4,6,8,10,12,14,16,18,20,22,24,26,28,30,32,34,36,38,40,42,44,46,48,50,52,54,56,58,60,62,64,66,68,70,72,74,76,78,80,82,84,86,88,90,92,94,96,98,100,102,104,106,108,110,112,114,116,118,120,122,124,126,-1,-1,-1,-1,-1,-1,-1,-1,-1,-1,-1,-1,-1,-1,-1,-1,-1,-1,-1,-1,-1,-1,-1,-1,-1,-1,-1,-1,-1,-1,-1,-1,-1,-1,-1,-1,-1,-1,-1,-1,-1,-1,-1,-1,-1,-1,-1,-1,-1,-1,-1,-1,-1,-1,-1,-1,-1,-1,-1,-1,-1,-1,-1,-1],"split_conditions":[6.2608695E0,4.285714E0,8.414634E0,1.8E1,1.05454544E2,7.3170733E0,9.7E1,5.1975684E0,2.7857144E0,5.117647E0,2E0,8.689655E0,6.7E1,1.454E2,1.0428572E1,1.132987E2,1.4533333E2,2E0,5E0,5E0,1.08583336E2,1.45E2,5.3333335E0,1.6776923E2,2E0,1.6366667E2,3E0,4E0,1.8766667E2,4E0,9.504951E0,4.767442E1,7.222222E1,8.179856E0,1.5773334E2,2.9918034E1,4E0,6.232365E0,7E0,1.417255E2,5.3E1,3.5E1,6E0,1.2115625E2,1.686E2,5E0,7E0,1.11034485E2,1.07482994E2,1.0275E2,5E0,1.0569948E2,3.165E2,9.230769E0,8.8E1,8.888889E0,1.7E1,3E0,3.165E2,9.230769E0,8.5E1,1.2E1,1.4181818E1,-4.2563295E0,-2.3175046E0,-1.9283278E0,-9.4182223E-1,-6.2206316E-1,1.177276E0,4.563418E-1,1.4548992E0,-4.6927295E0,-3.3542843E0,-2.3173547E0,-3.2382123E0,-1.7135638E0,-8.6429274E-1,-2.0318742E0,-2.6136928E0,-1.01086E0,-3.7986457E-1,-2.3518605E0,-1.3587492E0,-2.3732064E0,-7.16047E-1,-2.4775091E-1,-8.535725E-1,-4.846158E-1,3.18343E-1,8.661917E-1,2.296858E0,-4.2436257E-1,-1.107498E0,-5.279384E-3,-7.6478165E-1,8.0891006E-2,4.368937E-1,3.6709198E-1,1.5217435E0,-2.8319714E0,2.0035512E0,1.0815619E0,2.9478845E-1,-2.1096782E-1,7.1517766E-1,1.8246422E0,1.1476577E1,1.3981243E0,2.5989807E0,3.2782897E-1,1.0236E0,6.4808625E-1,2.2889488E0,-3.58026E-1,-3.843306E0,1.6979284E0,-6.1325192E-2,3.2237198E0,8.156883E0,2.2201648E0,3.094303E0,5.527545E-1,1.8181E0,3.1419349E0,4.5035663E0,5.0913672E0,9.971229E0],"split_indices":[3,3,3,2,7,3,0,8,3,3,1,8,0,6,3,6,6,3,1,1,6,6,3,6,1,6,1,1,6,1,8,7,7,8,6,7,1,8,1,6,0,0,1,6,6,1,1,7,7,6,1,7,6,8,0,8,10,1,6,8,2,3,3,0,0,0,0,0,0,0,0,0,0,0,0,0,0,0,0,0,0,0,0,0,0,0,0,0,0,0,0,0,0,0,0,0,0,0,0,0,0,0,0,0,0,0,0,0,0,0,0,0,0,0,0,0,0,0,0,0,0,0,0,0,0,0,0],"split_type":[0,0,0,0,0,0,0,0,0,0,0,0,0,0,0,0,0,0,0,0,0,0,0,0,0,0,0,0,0,0,0,0,0,0,0,0,0,0,0,0,0,0,0,0,0,0,0,0,0,0,0,0,0,0,0,0,0,0,0,0,0,0,0,0,0,0,0,0,0,0,0,0,0,0,0,0,0,0,0,0,0,0,0,0,0,0,0,0,0,0,0,0,0,0,0,0,0,0,0,0,0,0,0,0,0,0,0,0,0,0,0,0,0,0,0,0,0,0,0,0,0,0,0,0,0,0,0],"sum_hessian":[4.79435E5,2.57048E5,2.22387E5,1.00863E5,1.56185E5,1.50107E5,7.228E4,2.8732E4,7.2131E4,9.2579E4,6.3606E4,8.3399E4,6.6708E4,3.6011E4,3.6269E4,7.531E3,2.1201E4,1.6298E4,5.5833E4,3.9623E4,5.2956E4,2.007E4,4.3536E4,7.6728E4,6.671E3,2.2821E4,4.3887E4,1.7687E4,1.8324E4,2.9455E4,6.814E3,3.142E3,4.389E3,1.3923E4,7.278E3,4.664E3,1.1634E4,3.706E4,1.8773E4,2.7662E4,1.1961E4,5.914E3,4.7042E4,1.1865E4,8.205E3,1.6437E4,2.7099E4,7.273E4,3.998E3,1.827E3,4.844E3,1.9859E4,2.962E3,1.5428E4,2.8459E4,1.7359E4,3.28E2,1.6752E4,1.572E3,1.7984E4,1.1471E4,5.553E3,1.261E3,5.35E2,2.607E3,1.87E3,2.519E3,1.2639E4,1.284E3,4.712E3,2.566E3,1.535E3,3.129E3,6.005E3,5.629E3,2.5387E4,1.1673E4,1.0717E4,8.056E3,2.2301E4,5.361E3,1.016E3,1.0945E4,1.29E3,4.624E3,3.8331E4,8.711E3,2.674E3,9.191E3,7.12E3,1.085E3,1.0629E4,5.808E3,2.4243E4,2.856E3,3.5489E4,3.7241E4,9.64E2,3.034E3,2.6E1,1.801E3,3.258E3,1.586E3,5.771E3,1.4088E4,2.954E3,8E0,1.437E4,1.058E3,2.472E3,2.5987E4,1.5481E4,1.878E3,3.4E1,2.94E2,1.5796E4,9.56E2,1.499E3,7.3E1,1.5501E4,2.483E3,1.089E3,1.0382E4,4.378E3,1.175E3,1.162E3,9.9E1],"tree_param":{"num_deleted":"0","num_feature":"11","num_nodes":"127","size_leaf_vector":"1"}},{"base_weights":[4.6668152E-4,-1.0149642E1,7.3754053E0,-1.6282988E1,-6.292451E0,2.5213118E0,1.371296E1,-2.3215553E1,-1.1385124E1,1.6264149E0,-8.367208E0,-2.3389177E-2,4.888823E0,1.2429159E1,2.6131495E1,-1.397876E1,-2.5274378E1,-1.3929525E1,-7.8071003E0,-1.6772665E0,1.1399406E1,-1.4433662E1,-6.3895817E0,-2.985278E0,1.6603273E0,8.442138E0,1.9446999E0,1.1623449E1,2.8069092E1,2.0788294E1,3.8719425E1,-1.7589108E1,-6.0554534E-1,-3.125971E1,-2.256371E1,-1.0113631E1,-1.6329746E1,-8.245573E0,9.624364E0,-6.821217E0,1.8079985E0,9.927294E0,2.2979744E1,-2.235855E1,-1.1079165E1,-7.98202E0,-1.8766254E-1,-6.4543796E0,-2.6433504E-1,4.120132E-2,4.3541083E0,7.378897E0,1.9225765E1,-6.9423425E-1,4.5627785E0,3.8094962E0,1.3131953E1,2.6442444E1,7.627719E1,2.000904E1,4.502539E1,3.566777E1,6.21469E1,-2.1940277E0,-1.2629173E0,-1.0406017E0,6.779973E-1,-3.7844815E0,-2.8056738E0,-2.062534E0,-2.6722188E0,-1.4700322E0,-7.542331E-1,-1.7706193E0,-1.1412767E0,-4.1896063E-1,-9.609756E-1,5.7411385E-1,1.9833654E0,-3.8270352E0,-6.0611576E-1,-5.5821415E-2,8.434364E-1,8.311556E-1,1.8150911E0,2.1411948E0,5.7741513E0,-2.791229E0,-2.0164862E0,-9.77874E-1,-1.4444051E0,-5.8146715E-1,-1.1375891E0,1.7400293E-1,-1.114382E0,-1.0827882E0,-1.316537E-1,-8.0400705E-1,6.563909E-2,-1.2073252E-2,2.349012E0,-6.645218E0,4.4476667E-1,6.1422753E-1,1.7008904E0,1.7527504E0,4.3248205E0,9.336509E-2,-4.2217618E-1,-1.5187602E-1,5.1275265E-1,-4.190905E-1,8.4814435E-1,1.0286685E0,1.7151432E0,2.4882672E0,7.887848E0,2.384773E0,9.226035E0,6.8004127E0,1.9590324E0,3.8159568E0,7.8423767E0,3.4109528E0,7.634093E0,4.6978183E0,7.9245667E0],"categories":[],"categories_nodes":[],"categories_segments":[],"categories_sizes":[],"default_left":[0,0,0,0,0,0,0,0,0,0,0,0,0,0,0,0,0,0,0,0,0,0,0,0,0,0,0,0,0,0,0,0,0,0,0,0,0,0,0,0,0,0,0,0,0,0,0,0,0,0,0,0,0,0,0,0,0,0,0,0,0,0,0,0,0,0,0,0,0,0,0,0,0,0,0,0,0,0,0,0,0,0,0,0,0,0,0,0,0,0,0,0,0,0,0,0,0,0,0,0,0,0,0,0,0,0,0,0,0,0,0,0,0,0,0,0,0,0,0,0,0,0,0,0,0,0,0],"id":11,"left_children":[1,3,5,7,9,11,13,15,17,19,21,23,25,27,29,31,33,35,37,39,41,43,45,47,49,51,53,55,57,59,61,63,65,67,69,71,73,75,77,79,81,83,85,87,89,91,93,95,97,99,101,103,105,107,109,111,113,115,117,119,121,123,125,-1,-1,-1,-1,-1,-1,-1,-1,-1,-1,-1,-1,-1,-1,-1,-1,-1,-1,-1,-1,-1,-1,-1,-1,-1,-1,-1,-1,-1,-1,-1,-1,-1,-1,-1,-1,-1,-1,-1,-1,-1,-1,-1,-1,-1,-1,-1,-1,-1,-1,-1,-1,-1,-1,-1,-1,-1,-1,-1,-1,-1,-1,-1,-1],"loss_changes":[3.588894E7,4.772986E6,8.542229E6,2.644642E6,2.0350635E6,9.473337E5,1.919776E6,6.12906E5,4.154675E5,8.3030775E5,1.177419E6,3.7795328E5,8.52148E5,1.37515E6,7.580885E5,2.8388738E5,4.27112E5,2.4416E5,1.4509425E5,3.445891E5,1.1053E5,6.41198E5,7.31043E5,2.5927498E5,2.1075089E5,4.2305275E5,3.0778938E5,1.223574E6,4.172825E5,1.487395E5,2.3807E5,9.964525E4,9.061988E4,1.72251E5,1.45775E5,1.2140025E5,1.106165E5,1.02365875E5,1.8360691E4,1.8532872E5,1.7965916E5,7.646319E4,3.865722E4,8.68515E4,7.405E4,4.331695E5,3.1943972E5,2.71293E5,1.1022304E5,1.1460532E5,1.2046434E5,4.0001512E5,1.343595E5,1.2741077E5,7.681441E4,6.279394E5,9.94912E5,4.2120975E5,1.4360981E5,1.529675E5,5.341697E4,1.8601075E5,9.6392625E4,0E0,0E0,0E0,0E0,0E0,0E0,0E0,0E0,0E0,0E0,0E0,0E0,0E0,0E0,0E0,0E0,0E0,0E0,0E0,0E0,0E0,0E0,0E0,0E0,0E0,0E0,0E0,0E0,0E0,0E0,0E0,0E0,0E0,0E0,0E0,0E0,0E0,0E0,0E0,0E0,0E0,0E0,0E0,0E0,0E0,0E0,0E0,0E0,0E0,0E0,0E0,0E0,0E0,0E0,0E0,0E0,0E0,0E0,0E0,0E0,0E0,0E0,0E0,0E0],"parents":[2147483647,0,0,1,1,2,2,3,3,4,4,5,5,6,6,7,7,8,8,9,9,10,10,11,11,12,12,13,13,14,14,15,15,16,16,17,17,18,18,19,19,20,20,21,21,22,22,23,23,24,24,25,25,26,26,27,27,28,28,29,29,30,30,31,31,32,32,33,33,34,34,35,35,36,36,37,37,38,38,39,39,40,40,41,41,42,42,43,43,44,44,45,45,46,46,47,47,48,48,49,49,50,50,51,51,52,52,53,53,54,54,55,55,56,56,57,57,58,58,59,59,60,60,61,61,62,62],"right_children":[2,4,6,8,10,12,14,16,18,20,22,24,26,28,30,32,34,36,38,40,42,44,46,48,50,52,54,56,58,60,62,64,66,68,70,72,74,76,78,80,82,84,86,88,90,92,94,96,98,100,102,104,106,108,110,112,114,116,118,120,122,124,126,-1,-1,-1,-1,-1,-1,-1,-1,-1,-1,-1,-1,-1,-1,-1,-1,-1,-1,-1,-1,-1,-1,-1,-1,-1,-1,-1,-1,-1,-1,-1,-1,-1,-1,-1,-1,-1,-1,-1,-1,-1,-1,-1,-1,-1,-1,-1,-1,-1,-1,-1,-1,-1,-1,-1,-1,-1,-1,-1,-1,-1,-1,-1,-1],"split_conditions":[5.647059E0,7.857143E1,7.584E0,3.48E0,1E0,6.8347826E0,1.72E2,1E0,4.7213116E0,1.24242424E2,1.20034485E2,1.8E1,3E0,1.85E2,1.0428572E1,1.3459375E2,2.4E0,3E0,1.33E2,1.2845833E2,8.689655E0,3.6857142E0,7.529771E0,9.562914E1,6.8E0,1.6776923E2,6.5934067E0,3.2E1,1.4181818E1,1.37E2,1.2583333E1,1.135E2,5.3687944E0,2.9918034E1,6E0,4.8292685E0,7.8E1,2E0,1.48E2,8.175E1,7.414634E0,1.619E2,2.064E2,9.97E1,5E0,4E0,6E0,7.3E1,1.15E2,1.38E2,8.175E1,8.888889E0,2.064E2,6E0,6.8E1,6.8103447E0,8.7E0,3.165E2,2.1E1,3E0,9.833333E0,3.165E2,1.85E2,-2.1940277E0,-1.2629173E0,-1.0406017E0,6.779973E-1,-3.7844815E0,-2.8056738E0,-2.062534E0,-2.6722188E0,-1.4700322E0,-7.542331E-1,-1.7706193E0,-1.1412767E0,-4.1896063E-1,-9.609756E-1,5.7411385E-1,1.9833654E0,-3.8270352E0,-6.0611576E-1,-5.5821415E-2,8.434364E-1,8.311556E-1,1.8150911E0,2.1411948E0,5.7741513E0,-2.791229E0,-2.0164862E0,-9.77874E-1,-1.4444051E0,-5.8146715E-1,-1.1375891E0,1.7400293E-1,-1.114382E0,-1.0827882E0,-1.316537E-1,-8.0400705E-1,6.563909E-2,-1.2073252E-2,2.349012E0,-6.645218E0,4.4476667E-1,6.1422753E-1,1.7008904E0,1.7527504E0,4.3248205E0,9.336509E-2,-4.2217618E-1,-1.5187602E-1,5.1275265E-1,-4.190905E-1,8.4814435E-1,1.0286685E0,1.7151432E0,2.4882672E0,7.887848E0,2.384773E0,9.226035E0,6.8004127E0,1.9590324E0,3.8159568E0,7.8423767E0,3.4109528E0,7.634093E0,4.6978183E0,7.9245667E0],"split_indices":[3,7,3,3,1,8,0,1,3,7,6,10,1,6,3,6,3,1,2,6,8,3,8,7,3,6,3,0,3,2,3,6,8,7,1,8,0,1,2,6,8,6,6,6,1,1,1,0,6,2,6,8,6,1,0,8,3,6,0,9,3,6,6,0,0,0,0,0,0,0,0,0,0,0,0,0,0,0,0,0,0,0,0,0,0,0,0,0,0,0,0,0,0,0,0,0,0,0,0,0,0,0,0,0,0,0,0,0,0,0,0,0,0,0,0,0,0,0,0,0,0,0,0,0,0,0,0],"split_type":[0,0,0,0,0,0,0,0,0,0,0,0,0,0,0,0,0,0,0,0,0,0,0,0,0,0,0,0,0,0,0,0,0,0,0,0,0,0,0,0,0,0,0,0,0,0,0,0,0,0,0,0,0,0,0,0,0,0,0,0,0,0,0,0,0,0,0,0,0,0,0,0,0,0,0,0,0,0,0,0,0,0,0,0,0,0,0,0,0,0,0,0,0,0,0,0,0,0,0,0,0,0,0,0,0,0,0,0,0,0,0,0,0,0,0,0,0,0,0,0,0,0,0,0,0,0,0],"sum_hessian":[4.79435E5,2.01757E5,2.77678E5,7.7894E4,1.23863E5,1.57243E5,1.20435E5,3.2247E4,4.5647E4,2.5715E4,9.8148E4,7.5786E4,8.1457E4,1.09153E5,1.1282E4,5.879E3,2.6368E4,2.6675E4,1.8972E4,1.9219E4,6.496E3,2.4128E4,7.402E4,2.7467E4,4.8319E4,3.6909E4,4.4548E4,1.03807E5,5.346E3,7.922E3,3.36E3,4.629E3,1.25E3,8.216E3,1.8152E4,1.0302E4,1.6373E4,1.8507E4,4.65E2,7.762E3,1.1457E4,5.765E3,7.31E2,7.174E3,1.6954E4,5.8897E4,1.5123E4,1.2073E4,1.5394E4,3.018E4,1.8139E4,3.3598E4,3.311E3,2.2186E4,2.2362E4,1.6798E4,8.7009E4,5.173E3,1.73E2,7.677E3,2.45E2,2.975E3,3.85E2,2.464E3,2.165E3,5.37E2,7.13E2,2.685E3,5.531E3,1.2385E4,5.767E3,3.699E3,6.603E3,1.279E4,3.583E3,4.659E3,1.3848E4,3.38E2,1.27E2,1.82E2,7.58E3,8.443E3,3.014E3,4.82E3,9.45E2,7.01E2,3E1,2.028E3,5.146E3,1.2231E4,4.723E3,3.5945E4,2.2952E4,1.2861E4,2.262E3,6.521E3,5.552E3,1.629E3,1.3765E4,2.9974E4,2.06E2,2.3E1,1.8116E4,2.9776E4,3.822E3,3.094E3,2.17E2,1.5181E4,7.005E3,1.9E3,2.0462E4,6.193E3,1.0605E4,5.0948E4,3.6061E4,5.025E3,1.48E2,4.1E1,1.32E2,6.5E1,7.612E3,2.05E2,4E1,2.867E3,1.08E2,2.06E2,1.79E2],"tree_param":{"num_deleted":"0","num_feature":"11","num_nodes":"127","size_leaf_vector":"1"}},{"base_weights":[5.2282447E-4,-6.806793E0,8.91981E0,-1.1694915E1,-2.0698407E0,5.882736E0,1.5331011E1,-1.4232868E1,-2.27739E0,-4.348506E0,9.903097E-1,3.412163E0,8.087143E0,1.043761E1,2.058098E1,-2.2019289E1,-1.2459381E1,2.7678027E0,-9.756808E0,-6.45689E0,-2.314637E0,4.865031E0,-2.1362238E0,-2.2600389E-1,5.638005E0,6.135947E0,1.0533354E1,5.681519E0,1.4982715E1,1.7707096E1,3.1619814E1,-2.8485462E1,-1.8502981E1,-5.570208E0,-1.4015146E1,-6.866407E0,4.4653687E0,-2.3488512E1,-8.409446E0,-3.3838995E0,-7.6884456E0,-6.3348784E0,-1.3887161E0,7.967263E-2,7.937148E0,-5.3061104E-1,-5.817766E0,-9.928293E0,1.181266E0,1.2057935E1,4.5081162E0,4.031185E0,8.388495E0,1.0192709E1,3.1638416E1,6.4623976E0,-3.4993595E1,1.3801081E1,3.0750626E1,1.9898516E1,1.4242476E1,2.8370077E1,4.5708813E1,-2.9344146E0,1.767008E-1,-2.0344493E0,-1.1004308E0,-9.6695155E-1,-6.11273E-3,-1.8594278E0,-1.1457877E0,-9.375281E0,-6.2096286E-1,3.630065E-1,2.248082E0,-3.642E0,-2.060568E0,-9.815502E-1,1.6865684E-1,-8.540298E-1,-1.20617464E-1,-8.0835783E-1,1.2372632E-1,-1.5163866E0,-3.0254686E-1,2.5030686E-2,-4.0928125E-1,-2.4980316E0,5.838449E-2,6.565177E-1,1.782857E0,-1.1670717E-1,9.534907E-1,-1.4532915E0,-5.0650644E-1,-1.636398E0,-3.8621512E-1,2.4938908E-1,-9.177603E-1,2.6469297E0,1.0961965E0,3.661273E-1,1.0973239E0,5.0061697E-1,2.5028655E-2,4.321477E-1,1.0137801E0,1.1271333E0,5.075497E-1,3.477457E0,5.8414763E-1,-1.8142962E-1,9.223887E-1,-5.4515996E0,-2.668204E0,5.89644E-1,1.5443186E0,3.6381269E0,1.278103E0,2.9153123E0,1.877964E0,3.1222185E-1,1.5149986E0,3.5243351E0,2.4986303E0,4.234821E0,8.501059E0],"categories":[],"categories_nodes":[],"categories_segments":[],"categories_sizes":[],"default_left":[0,0,0,0,0,0,0,0,0,0,0,0,0,0,0,0,0,0,0,0,0,0,0,0,0,0,0,0,0,0,0,0,0,0,0,0,0,0,0,0,0,0,0,0,0,0,0,0,0,0,0,0,0,0,0,0,0,0,0,0,0,0,0,0,0,0,0,0,0,0,0,0,0,0,0,0,0,0,0,0,0,0,0,0,0,0,0,0,0,0,0,0,0,0,0,0,0,0,0,0,0,0,0,0,0,0,0,0,0,0,0,0,0,0,0,0,0,0,0,0,0,0,0,0,0,0,0],"id":12,"left_children":[1,3,5,7,9,11,13,15,17,19,21,23,25,27,29,31,33,35,37,39,41,43,45,47,49,51,53,55,57,59,61,63,65,67,69,71,73,75,77,79,81,83,85,87,89,91,93,95,97,99,101,103,105,107,109,111,113,115,117,119,121,123,125,-1,-1,-1,-1,-1,-1,-1,-1,-1,-1,-1,-1,-1,-1,-1,-1,-1,-1,-1,-1,-1,-1,-1,-1,-1,-1,-1,-1,-1,-1,-1,-1,-1,-1,-1,-1,-1,-1,-1,-1,-1,-1,-1,-1,-1,-1,-1,-1,-1,-1,-1,-1,-1,-1,-1,-1,-1,-1,-1,-1,-1,-1,-1,-1],"loss_changes":[2.9109696E7,6.296021E6,4.040708E6,3.198432E6,9.629279E5,7.66899E5,1.713502E6,1.455372E6,1.0720438E6,3.3940725E5,7.1403575E5,5.377316E5,3.55135E5,7.4630425E5,1.02033E6,4.44073E5,9.20154E5,2.775047E5,2.1153462E5,1.4705712E5,1.4996772E5,3.869492E5,1.9281803E5,3.4416788E5,2.98788E5,1.9624675E5,2.3706175E5,5.361835E5,3.285215E5,1.93589E5,3.029935E5,1.78931E5,1.747205E5,3.5724653E5,8.19972E5,1.4447728E5,2.1699122E5,3.7349E4,1.4797688E5,1.2486981E5,9.7858375E4,2.2032188E5,1.451471E5,1.3004939E5,2.1742206E5,1.4553039E5,6.4908844E4,1.2459081E5,2.9935406E5,9.7082375E4,1.9176906E5,7.890069E4,1.42224E5,1.7930625E5,4.2190125E4,3.7844338E5,5.014453E4,2.131225E5,1.23986875E5,1.613905E5,9.98305E4,1.24781E5,1.60705E5,0E0,0E0,0E0,0E0,0E0,0E0,0E0,0E0,0E0,0E0,0E0,0E0,0E0,0E0,0E0,0E0,0E0,0E0,0E0,0E0,0E0,0E0,0E0,0E0,0E0,0E0,0E0,0E0,0E0,0E0,0E0,0E0,0E0,0E0,0E0,0E0,0E0,0E0,0E0,0E0,0E0,0E0,0E0,0E0,0E0,0E0,0E0,0E0,0E0,0E0,0E0,0E0,0E0,0E0,0E0,0E0,0E0,0E0,0E0,0E0,0E0,0E0,0E0,0E0],"parents":[2147483647,0,0,1,1,2,2,3,3,4,4,5,5,6,6,7,7,8,8,9,9,10,10,11,11,12,12,13,13,14,14,15,15,16,16,17,17,18,18,19,19,20,20,21,21,22,22,23,23,24,24,25,25,26,26,27,27,28,28,29,29,30,30,31,31,32,32,33,33,34,34,35,35,36,36,37,37,38,38,39,39,40,40,41,41,42,42,43,43,44,44,45,45,46,46,47,47,48,48,49,49,50,50,51,51,52,52,53,53,54,54,55,55,56,56,57,57,58,58,59,59,60,60,61,61,62,62],"right_children":[2,4,6,8,10,12,14,16,18,20,22,24,26,28,30,32,34,36,38,40,42,44,46,48,50,52,54,56,58,60,62,64,66,68,70,72,74,76,78,80,82,84,86,88,90,92,94,96,98,100,102,104,106,108,110,112,114,116,118,120,122,124,126,-1,-1,-1,-1,-1,-1,-1,-1,-1,-1,-1,-1,-1,-1,-1,-1,-1,-1,-1,-1,-1,-1,-1,-1,-1,-1,-1,-1,-1,-1,-1,-1,-1,-1,-1,-1,-1,-1,-1,-1,-1,-1,-1,-1,-1,-1,-1,-1,-1,-1,-1,-1,-1,-1,-1,-1,-1,-1,-1,-1,-1,-1,-1,-1],"split_conditions":[6.4363637E0,4.8E0,8.533334E0,1.08478806E2,1.4E2,1.1646932E2,1E2,4.9390244E1,3E1,5.571429E0,3E0,6.9E1,1.4788889E2,1.454E2,1.0428572E1,2.64E0,1E0,1.2231111E2,3.12E0,2E0,5.1975684E0,6.5538464E0,6E0,5.2173915E0,2E0,7.4226804E0,2.064E2,4E0,1.935E2,4E0,9.504951E0,1.4683333E2,6.9E1,1.2845833E2,3.4285715E0,6.7875E1,1.7283333E2,2.3076923E0,1.5323077E2,5.1875E0,8.345178E0,3.7E1,4E0,4.382979E1,1.6776923E2,8.79661E0,7.8E1,3.3E1,3E0,7.0481926E1,1.51E2,5E0,4.9E1,5E0,4E0,2.1E1,1.27E2,1.8E1,2E0,1.025E2,8.3E1,2E0,1.4181818E1,-2.9344146E0,1.767008E-1,-2.0344493E0,-1.1004308E0,-9.6695155E-1,-6.11273E-3,-1.8594278E0,-1.1457877E0,-9.375281E0,-6.2096286E-1,3.630065E-1,2.248082E0,-3.642E0,-2.060568E0,-9.815502E-1,1.6865684E-1,-8.540298E-1,-1.20617464E-1,-8.0835783E-1,1.2372632E-1,-1.5163866E0,-3.0254686E-1,2.5030686E-2,-4.0928125E-1,-2.4980316E0,5.838449E-2,6.565177E-1,1.782857E0,-1.1670717E-1,9.534907E-1,-1.4532915E0,-5.0650644E-1,-1.636398E0,-3.8621512E-1,2.4938908E-1,-9.177603E-1,2.6469297E0,1.0961965E0,3.661273E-1,1.0973239E0,5.0061697E-1,2.5028655E-2,4.321477E-1,1.0137801E0,1.1271333E0,5.075497E-1,3.477457E0,5.8414763E-1,-1.8142962E-1,9.223887E-1,-5.4515996E0,-2.668204E0,5.89644E-1,1.5443186E0,3.6381269E0,1.278103E0,2.9153123E0,1.877964E0,3.1222185E-1,1.5149986E0,3.5243351E0,2.4986303E0,4.234821E0,8.501059E0],"split_indices":[3,3,3,7,6,7,0,7,2,3,1,0,6,6,3,3,1,6,3,1,8,8,1,8,1,3,6,1,6,1,8,6,0,6,3,6,6,3,6,8,8,0,1,7,6,8,2,0,1,7,0,1,2,1,1,0,6,10,1,7,2,1,3,0,0,0,0,0,0,0,0,0,0,0,0,0,0,0,0,0,0,0,0,0,0,0,0,0,0,0,0,0,0,0,0,0,0,0,0,0,0,0,0,0,0,0,0,0,0,0,0,0,0,0,0,0,0,0,0,0,0,0,0,0,0,0,0],"split_type":[0,0,0,0,0,0,0,0,0,0,0,0,0,0,0,0,0,0,0,0,0,0,0,0,0,0,0,0,0,0,0,0,0,0,0,0,0,0,0,0,0,0,0,0,0,0,0,0,0,0,0,0,0,0,0,0,0,0,0,0,0,0,0,0,0,0,0,0,0,0,0,0,0,0,0,0,0,0,0,0,0,0,0,0,0,0,0,0,0,0,0,0,0,0,0,0,0,0,0,0,0,0,0,0,0,0,0,0,0,0,0,0,0,0,0,0,0,0,0,0,0,0,0,0,0,0,0],"sum_hessian":[4.79435E5,2.7191E5,2.07525E5,1.33819E5,1.38091E5,1.40819E5,6.6706E4,1.05411E5,2.8408E4,7.9152E4,5.8939E4,6.6402E4,7.4417E4,3.4527E4,3.2179E4,1.9553E4,8.5858E4,1.6965E4,1.1443E4,3.8863E4,4.0289E4,2.632E4,3.2619E4,2.5205E4,4.1197E4,4.1399E4,3.3018E4,1.6873E4,1.7654E4,2.5534E4,6.645E3,6.885E3,1.2668E4,1.5818E4,7.004E4,2.541E3,1.4424E4,1.021E3,1.0422E4,1.112E4,2.7743E4,7.541E3,3.2748E4,1.0291E4,1.6029E4,2.2714E4,9.905E3,3.192E3,2.2013E4,6.164E3,3.5033E4,2.1403E4,1.9996E4,3.2495E4,5.23E2,1.6556E4,3.17E2,1.6425E4,1.229E3,1.5638E4,9.896E3,5.402E3,1.243E3,6.695E3,1.9E2,1.0169E4,2.499E3,9.069E3,6.749E3,2.5096E4,4.4944E4,1.8E1,2.523E3,1.3786E4,6.38E2,1.84E2,8.37E2,9.148E3,1.274E3,3.301E3,7.819E3,2.6567E4,1.176E3,2.055E3,5.486E3,2.039E4,1.2358E4,2.02E2,1.0089E4,1.4078E4,1.951E3,2.1364E4,1.35E3,7.86E2,9.119E3,1.548E3,1.644E3,1.9538E4,2.475E3,4.34E2,5.73E3,3.0977E4,4.056E3,1.7015E4,4.388E3,6.015E3,1.3981E4,2.6837E4,5.658E3,4.66E2,5.7E1,4.142E3,1.2414E4,9.3E1,2.24E2,2.826E3,1.3599E4,9.35E2,2.94E2,1.684E3,1.3954E4,7.47E2,9.149E3,1.779E3,3.623E3,1.147E3,9.6E1],"tree_param":{"num_deleted":"0","num_feature":"11","num_nodes":"127","size_leaf_vector":"1"}},{"base_weights":[4.8473984E-4,-8.307167E0,5.9406643E0,-1.1839308E1,-3.6588683E0,2.4408157E0,1.1847629E1,-1.708111E1,-8.019626E0,-4.4017982E-1,-9.72736E0,3.983793E-1,4.973657E0,1.071509E1,2.4317396E1,-9.422484E0,-1.9153757E1,-4.525052E0,-9.417091E0,-3.6617308E0,4.5800233E0,-1.7248074E1,-6.9587145E0,-7.9656583E-1,3.8507352E0,1.7640853E0,6.3425455E0,6.338655E0,1.3946157E1,1.961765E1,3.5077736E1,-1.6026583E1,-5.279856E0,-2.4156122E1,-1.6958595E1,-6.9505587E0,-5.559328E-1,-1.2282056E1,-8.053234E0,-4.719433E0,5.732095E0,3.479039E0,1.6894035E1,-2.333272E1,-1.4266737E1,-5.0343556E0,-1.1728242E1,-2.9662805E0,5.5363655E-1,9.61145E0,1.6741751E0,-5.4011497E0,3.1999786E0,7.815859E0,3.4942987E0,1.3555434E0,9.587297E0,1.1873753E1,2.123958E1,4.259857E1,1.800326E1,3.0341064E1,5.54559E1,-2.2949207E0,-1.1962606E0,-7.0608014E-1,2.1950436E-1,-1.8134832E0,-2.651589E0,-2.252093E0,-1.5822383E0,-2.0339012E0,-6.1279345E-1,-1.4239525E0,1.2167448E-2,-1.1227788E0,-1.7285966E0,-8.313695E-1,3.0906782E-1,-2.8366172E0,-4.3450934E-1,1.1852646E0,2.6548025E-1,2.0503068E-1,1.1026152E0,2.2315013E0,1.0696971E0,-3.2726448E0,-2.1988797E0,-1.1261705E0,-2.0818794E0,-6.827159E-1,-1.1711889E-1,-2.01142E0,-1.0065436E0,-7.082992E-1,-6.731885E-2,1.8370771E-1,-1.7423873E-1,5.2063227E-1,1.4043431E0,3.6781427E-1,-1.4007501E-1,-1.0455369E0,1.6899195E-2,7.764747E-2,5.004379E-1,3.9704746E-1,9.263136E-1,-9.55029E-1,4.0434954E-1,-5.448845E-1,3.971456E-1,1.1585752E0,7.389882E-2,1.355532E0,9.328641E-1,1.9532375E0,3.0114734E0,3.246567E-1,4.9361687E0,4.9639125E0,1.7081568E0,7.9551325E0,2.8709838E0,4.6759086E0,9.158186E0],"categories":[],"categories_nodes":[],"categories_segments":[],"categories_sizes":[],"default_left":[0,0,0,0,0,0,0,0,0,0,0,0,0,0,0,0,0,0,0,0,0,0,0,0,0,0,0,0,0,0,0,0,0,0,0,0,0,0,0,0,0,0,0,0,0,0,0,0,0,0,0,0,0,0,0,0,0,0,0,0,0,0,0,0,0,0,0,0,0,0,0,0,0,0,0,0,0,0,0,0,0,0,0,0,0,0,0,0,0,0,0,0,0,0,0,0,0,0,0,0,0,0,0,0,0,0,0,0,0,0,0,0,0,0,0,0,0,0,0,0,0,0,0,0,0,0,0],"id":13,"left_children":[1,3,5,7,9,11,13,15,17,19,21,23,25,27,29,31,33,35,37,39,41,43,45,47,49,51,53,55,57,59,61,63,65,67,69,71,73,75,77,79,81,83,85,87,89,91,93,95,97,99,101,103,105,107,109,111,113,115,117,119,121,123,125,-1,-1,-1,-1,-1,-1,-1,-1,-1,-1,-1,-1,-1,-1,-1,-1,-1,-1,-1,-1,-1,-1,-1,-1,-1,-1,-1,-1,-1,-1,-1,-1,-1,-1,-1,-1,-1,-1,-1,-1,-1,-1,-1,-1,-1,-1,-1,-1,-1,-1,-1,-1,-1,-1,-1,-1,-1,-1,-1,-1,-1,-1,-1,-1],"loss_changes":[2.365971E7,3.281773E6,5.779263E6,2.273945E6,1.6858141E6,9.081166E5,1.468592E6,7.59786E5,3.208255E5,9.121165E5,6.2271325E5,4.0091122E5,3.4428462E5,1.348213E6,4.37205E5,2.789428E5,4.13332E5,1.8070688E5,1.8329125E5,3.4135406E5,2.9881716E5,1.4566075E5,2.0062412E5,2.1149784E5,3.1329697E5,2.4108744E5,2.304955E5,6.55599E5,8.28832E5,2.2291E5,2.52274E5,1.10317875E5,8.347086E4,1.62764E5,1.65164E5,1.28195625E5,6.602837E4,7.965E4,9.2327125E4,2.7319712E5,6.5456875E4,2.1818898E5,6.0533125E4,3.2672125E4,1.06165625E5,1.0790447E5,8.7436875E4,2.614171E5,1.3114216E5,1.337015E5,1.11766266E5,1.1013519E5,8.5356516E4,2.0145625E5,1.3422119E5,2.8453178E5,4.3350625E5,1.82693E5,1.83293E5,1.04965875E5,1.6346038E5,1.6925962E5,1.5123725E5,0E0,0E0,0E0,0E0,0E0,0E0,0E0,0E0,0E0,0E0,0E0,0E0,0E0,0E0,0E0,0E0,0E0,0E0,0E0,0E0,0E0,0E0,0E0,0E0,0E0,0E0,0E0,0E0,0E0,0E0,0E0,0E0,0E0,0E0,0E0,0E0,0E0,0E0,0E0,0E0,0E0,0E0,0E0,0E0,0E0,0E0,